9996 16
the -0.044904836 0.03360544 -0.011848814 0.028959455 0.008080164 -0.024671141 0.018300971 0.031142496 -0.03161436 0.009019247 -0.009633088 0.012500511 -0.055581402 0.012671257 -0.033435978 0.0028330404
and 0.037062876 0.014969552 0.029260661 -0.03914991 0.060054958 0.046552587 -0.031857755 -0.06636324 0.028968018 0.031207867 -0.057557367 -0.045824606 -0.005549342 -0.012591382 -0.063172385 -0.026728746
a 0.02743314 -0.044796467 -0.063178554 -0.029240975 0.0029363092 -0.02512904 0.008746767 -0.071543634 0.034486603 0.06870397 -0.031909954 -0.042311262 0.008502612 -0.016404858 -0.046489384 -0.020427777
of 0.008711443 -0.049455725 -0.009271766 -0.077968 0.0086996835 -0.03342078 -0.006654174 0.020849874 0.032898065 0.013588613 -0.031809393 0.018803278 -0.03820002 0.014822662 0.042569004 0.00071954704
to -0.039540596 0.017938374 0.107934326 0.020341277 -0.076790355 -0.03138876 0.088473395 0.0580008 -0.029417006 0.073227115 0.009576985 0.017030537 -0.12606993 0.045303266 0.11436984 -0.0255956
is 0.045410145 -0.051150523 -0.035540055 -0.114184864 0.03417966 -0.013295609 -0.025673943 -0.042820033 0.06603247 0.029692255 -0.05624576 -0.06637127 0.023214167 0.040054258 0.014788053 -0.008462077
br 0.009235384 0.060231928 0.027135443 -0.026493812 0.0025038014 -0.05058626 0.038096186 -0.029421255 -0.06225842 0.001817041 -0.04559067 0.0008810974 0.004668416 0.070384815 0.0030286927 -0.010879651
in -0.018878723 0.011097813 -0.0106914425 -0.041997828 0.049314614 0.015127004 -0.049582083 -0.008303877 -0.004961031 0.025313541 -0.020935263 0.00068020367 -0.007539271 0.02736265 0.040633723 -0.051602576
it 0.097827055 0.014083151 -0.027895221 -0.06502454 0.049376562 0.012646059 0.048685562 -0.0034617977 0.025513675 0.007690307 -0.025404751 -0.048304014 -0.0069824723 0.005490458 0.0034177012 -0.06857144
i -0.015368054 0.059830833 -0.012306152 0.030092493 -0.0042996095 -0.07798488 0.09467282 0.08816914 -0.01839552 0.010379154 -0.030745476 0.070983715 -0.07650005 0.042673536 0.021470621 -0.035348427
this 0.029626725 -0.003558711 0.011213115 0.0053980113 -0.020110974 -0.08985033 0.040331643 0.06714843 -0.07300532 0.0026867928 0.03282128 -0.0057116025 -0.031006005 0.062001728 0.02356791 -0.056515664
that -0.002464422 0.046473365 -0.018447712 0.021871084 0.010583414 0.014367387 -0.02536429 0.0096557345 -0.046342153 -0.013419331 -0.040987622 -0.019479921 -0.04161596 0.04852014 0.0041031973 -0.011879939
was 0.0072177565 0.033602513 -0.015252662 0.04887503 -0.01922154 0.0011084512 0.010389977 -0.024838936 -0.07187276 0.07500299 0.0658686 -0.008063914 -0.07939926 0.0069549354 0.03226351 -0.044717558
as -0.046165355 0.05928264 0.018183524 -0.033127584 -0.052627 -0.029066287 0.065185234 0.052387558 -0.06832633 0.042708144 -0.00020022798 0.017559635 -0.02895067 0.09739118 -0.003606336 0.01517139
for 0.04589628 0.07595909 0.030589567 -0.04574478 0.007254299 -0.028920686 0.01039125 0.027556619 -0.031299748 0.057860125 0.008758275 -0.019078622 -0.06010177 0.055067386 0.004392028 -0.045619406
with 0.013200287 0.020853788 0.07899108 0.012325798 -0.057144605 -0.045105595 -0.0017989593 0.07139447 -0.055255678 -0.015356957 -0.033826966 -0.02307971 0.001574608 0.07827985 0.08043932 -0.03069998
movie -0.029061237 0.08805279 0.06294746 0.033408478 -0.040418383 -0.108114414 0.11863535 0.04080891 -0.066212684 0.047762033 0.032956645 0.08449991 -0.09685098 0.07741035 0.09491486 -0.031296358
but -0.019130956 0.026974965 0.019870436 0.010330081 -0.029996684 0.008288695 0.056199726 0.040724497 -0.05831635 0.056211203 0.013801648 -0.025139779 0.012802783 0.056699682 0.030141972 -0.03607726
film 0.06250599 0.008662552 -0.028659094 -0.0689992 0.005877181 0.04136946 0.038483754 -0.052027516 0.019883202 0.07202636 -0.054521244 -0.08076236 0.008805147 0.06574556 0.030107582 -0.10435849
on -0.013199481 0.00961836 0.029077008 -0.033005804 -0.04522527 0.017023735 0.04437247 0.0033129659 -0.019069973 -0.004600982 -0.037693165 -0.02214403 -0.02809584 0.0414686 0.07288134 0.03181511
not -0.021343594 0.021822417 0.012426436 -0.031080374 -0.03989147 -0.018213756 0.051873706 0.028008554 -0.03884006 0.022356099 -0.01756325 -0.00893469 -0.04537146 0.076616354 0.047189362 -0.020120313
you 0.040811095 0.030486746 -0.009143677 -0.057845104 0.077252924 0.033608105 0.025493126 -0.009493001 0.04304978 -0.036174946 -0.0739367 -0.04561002 0.030426083 -0.011623509 -0.022091959 -0.08442135
are -0.08633173 0.06482256 0.107856445 0.059767827 -0.10249956 -0.061625116 0.107483506 0.086929604 -0.048617247 0.07853822 0.021278523 0.08421206 -0.060243092 0.039820164 0.10564883 -0.09879981
his 0.08291138 -0.099132635 -0.02891097 -0.028840045 0.09377937 0.07875025 -0.07428058 -0.038490918 0.04964175 -0.028975176 0.0018216186 -0.023951404 0.086244926 -0.026909249 -0.03750331 -0.012596817
have -0.026988918 0.07211213 0.10703333 0.060121994 0.0091421455 -0.07104726 0.06280261 0.012150773 -0.09898547 0.027903903 -0.0038964076 0.04341095 -0.0483538 0.059649788 0.0989604 -0.07832629
he -0.03057219 0.008523289 -0.023029316 -0.021681093 0.0053967074 -0.004294939 -0.015233504 -0.017888794 0.009363689 -0.011750827 -0.055243097 0.015211514 0.004470751 0.010894643 0.0037815478 0.05047107
be 0.045610674 0.032784015 0.05469608 -0.010621114 0.036368255 -0.006799448 0.051888946 -0.0045873653 -0.008131203 0.034997996 -0.07036674 -0.029599352 0.013419837 0.033288267 0.048554838 -0.08240815
one 0.08040638 -0.008804703 -0.03988326 -0.10911467 0.057944477 0.06606978 -0.04388261 -0.059223764 0.034007717 -0.053821392 -0.06964864 -0.050377496 0.016534805 -0.05835778 -0.027343538 -0.044611167
all 0.12798563 -0.026973391 -0.09565855 -0.035764795 0.056414455 0.033599004 0.033429775 -0.061835904 0.06282502 -0.034345645 -0.08309798 -0.056824293 0.057489198 0.0022236134 0.02659946 -0.06293577
at -0.062588565 0.04921473 0.06818446 0.02484069 -0.08568657 -0.06414596 0.12589331 0.1072059 -0.062083773 0.034056053 -0.0072791623 0.08300747 -0.027089568 0.12156506 0.09869388 0.03625224
by 0.023841947 0.0066410205 0.008801742 -0.0058081467 0.029997466 0.046914786 0.04349237 0.010886164 0.02570819 -0.045692034 -0.06811329 -0.040735856 -0.029510029 -0.021039698 0.012265977 0.009701198
an -0.058014493 0.013388745 0.053860303 0.0796228 -0.037763387 -0.03093601 -0.005940575 0.03967341 -0.024545873 0.08717189 -0.012883987 0.0150918225 -0.11720126 0.013117745 0.013412812 0.0009191887
they -0.006745518 0.04005128 0.004588826 0.086445875 -0.078070834 -0.08792752 0.035419416 0.09876358 -0.047302216 0.09009456 0.07774582 0.006199961 -0.071640916 0.06951403 0.059583385 0.014064817
who 0.017867193 -0.044918768 0.048552413 0.03476519 -0.0032650037 0.03628642 0.056372877 0.021912962 0.0239198 -0.01606745 0.048007462 0.032430474 -0.013448568 -0.00032864528 0.031823628 0.0072278767
so -0.027200622 0.026562544 0.08812456 0.0723426 -0.041873876 -0.017560018 0.10588286 0.093462996 -0.051627573 0.037230898 0.01732299 0.04605329 -0.043901414 0.07799875 0.08258506 -0.07036427
from 0.0036021764 0.012593567 0.05995306 0.007417925 -0.070883304 -0.073281854 0.119578294 0.03656323 -0.10675005 0.09805153 0.05929893 0.06147959 -0.056773875 0.12912107 0.09890366 -0.05429764
like -0.0030519182 0.067616425 -0.042010296 0.049357068 0.031390343 0.012369908 0.060278945 0.011635147 0.028322212 0.02986237 0.039615706 0.034461737 -0.0014802222 0.061091065 -0.017181557 -0.07975155
her -0.0051637366 0.06446437 0.0068789977 0.024749467 -0.033377778 0.028832205 0.033560652 0.043105707 -0.012132784 -0.010252261 0.058298208 0.0050436356 -0.052672077 -0.03558227 -0.039701942 0.051504273
or 0.013242104 0.040987983 0.015202563 0.011600827 -0.022757728 -0.07311894 -0.001724588 0.04936999 -0.0814285 0.009035705 -0.0116926 0.03039974 -0.014779761 0.079998665 0.055910807 -0.07070503
just -0.038476124 0.08644625 0.10124519 0.09285442 -0.13632861 -0.13405414 0.07287154 0.11056022 -0.08444489 0.078037515 0.069573246 0.04667333 -0.0465818 0.12313938 0.101476535 0.07886069
about -0.048933174 0.09714658 0.050497513 0.08291311 -0.03245822 -0.05182403 0.11352825 0.06589264 -0.038190186 0.070996374 0.01973801 -0.0060926178 -0.06604877 0.028248418 0.095740065 -0.023014229
it's -0.011237047 -0.040211033 0.010089714 -0.09365396 -0.0017767999 0.01815098 0.04344173 0.03178366 -0.058793973 0.0062529757 -0.037320796 0.000924825 0.028382208 0.08636907 0.031568397 -0.05914339
out -0.018380566 0.046512403 0.08364757 -0.0103356205 -0.0258046 -0.095534734 0.047306668 0.014675998 -0.07923807 0.097843096 -0.038492568 -0.022355609 -0.11332332 0.13720441 0.024925066 -0.086917736
has -0.025321456 0.0072758645 0.09552428 0.02893467 -0.021981422 -0.05704344 0.066659726 0.068334974 -0.04106244 0.07715338 0.061793353 -0.0110103935 -0.07856466 0.042256735 0.013910901 0.03177539
if 0.029561918 0.038067136 -0.007991382 0.06948807 -0.022121312 0.028407149 -0.024669359 0.068503544 -0.030014213 0.029249607 0.0217322 0.038028605 0.0016573732 0.04758715 0.05986795 -0.0121019
some 0.03469123 0.023160513 0.081760615 -0.033569563 -0.04306657 -0.0691445 0.07262983 0.07636792 -0.0793963 0.008606266 -0.065329604 0.0119603975 -0.06558357 0.06505457 0.029008487 0.07449177
there -0.08496676 0.048312016 0.110965155 0.036249958 -0.12785235 -0.05695993 0.118319616 0.073987685 -0.105390236 0.0929141 0.019598585 0.051034812 -0.052862763 0.06464785 0.10155409 0.020921852
what 0.06218473 -0.024053082 -0.016031247 -0.0452901 -0.019818448 0.048741337 -0.045490053 -0.053869188 0.022609126 0.040096372 0.019418143 -0.06236099 -0.016194185 -0.015986914 0.025323784 -0.022685094
good 0.04278345 -0.040620934 0.0070743035 -0.06469009 0.033624306 0.016194731 -0.014647512 -0.0748487 -0.022859246 0.015323796 0.017612664 0.021458946 0.07327756 -0.051462073 -0.053675544 -0.046862107
more 0.05630713 -0.025790727 -0.016384369 -0.06981203 0.032373466 -0.025161628 0.031163666 -0.037174378 -0.058752846 0.0027109557 -0.059613496 -0.010034929 2.135514e-05 0.039051276 -0.0020405136 -0.002618949
when -0.0004099138 0.008241759 0.0275581 -0.035802342 -0.02978841 -0.036701705 0.020919837 0.015992066 -0.018440975 -0.01031645 0.008852426 -0.0062666424 -0.037087835 0.054058485 -0.037430268 0.006441255
very 0.012499409 -0.020620946 0.0502096 0.0027288937 0.043841 -0.02268432 0.022254579 -0.026774636 -0.027867587 -0.029119149 -0.04062308 -0.022356657 -0.0021759728 -0.011076542 0.032754578 -0.04894877
up -0.046959516 0.06742546 0.008717981 0.027921548 -0.02662132 0.004897344 0.0741396 0.010277507 -0.02786027 0.06712372 0.04094255 0.028548546 0.0033618186 0.036217194 0.043519773 -0.010732867
no -0.104999416 0.105974615 0.11207357 0.019731086 -0.10288908 -0.030938387 0.08249112 0.10128643 -0.047089014 0.0347919 0.014229144 -0.00541577 -0.07820582 0.054386925 0.03431121 -0.046106394
time -0.04394211 -0.021564066 0.021026218 -0.045393866 -0.05482755 0.0003845159 0.07113419 0.044414155 0.012847315 0.048225082 -0.051536698 0.035852242 -0.06597058 -0.008394481 0.04298697 0.047187362
she 0.06435449 -0.054706585 -0.03241194 -0.019401122 -0.008928749 0.059422806 -0.006304322 -0.057182215 0.004182512 -0.0066259773 -0.0131386295 -0.036142204 -0.017853647 0.0033488935 -0.05225083 0.06546659
even -0.06554577 0.050391376 0.046895534 0.06343747 -0.0046981485 -0.064731665 0.10220302 0.07256252 -0.029681599 0.08716849 -0.018070156 0.038196873 -0.10930162 0.09371312 0.027382296 0.007945897
my 0.008651623 -0.022652794 -0.03256704 -0.06609143 0.04924357 0.07053172 -0.016419131 -0.06930058 0.03548286 -0.027232705 -0.08825349 -0.007011797 -0.0060768183 -0.051074862 -0.030967604 -0.12305809
would 0.05023315 -0.042198937 -0.090512365 -0.08643702 0.014947737 0.07186543 -0.03525884 -0.06364648 0.016896708 -0.07319995 -0.039612293 -0.06715973 0.04007757 -0.030748237 -0.010054396 -0.0246795
which -0.0382051 0.025034264 -0.02212404 -0.048436593 0.010474861 -0.0024875803 -0.055693187 -0.0420574 0.005401969 -0.053234804 0.01495109 -0.03591291 0.04894526 0.031650424 -0.012182572 -0.03156171
only -0.015948609 0.0009829465 0.014990647 -0.009233019 0.023296753 0.0061631086 0.040656425 0.029428175 0.011593856 0.046973985 -0.010231283 -0.033223186 0.036519825 -0.035106525 0.05437654 0.033267964
story -0.0096675 -0.03915212 0.013397136 -0.0775982 0.009346897 0.051505033 0.026512774 0.0093282685 -0.033030573 0.03192993 -0.034284275 -0.025864977 0.04681448 0.03801675 -0.030503767 0.09657607
really -0.04928949 0.04910575 0.07516496 0.037519768 -0.019785607 -0.061716124 0.047174875 0.0967793 -0.10256017 0.08878666 -0.010881056 0.03058994 -0.06923311 0.088600196 0.09930993 -0.084638305
see -0.046298422 0.08355944 -0.019328479 0.029213311 -0.059823103 -0.0024712812 0.03254841 -0.029793598 0.021305727 0.0076242047 0.029539445 0.027901303 -0.023651114 0.06599998 -0.003842295 -0.013390002
their -0.043410994 -0.02641006 0.050456908 -0.0057593873 -0.018675847 -0.051063012 0.061088815 0.028013162 0.0035770573 -0.018010639 -0.02452389 -0.036069855 -0.06699482 0.028375557 0.035719633 0.0017452668
had -0.009204771 -0.008962198 0.0010939479 0.017904801 0.028951878 -0.019382335 0.046540655 -0.049009383 0.0138642965 -0.018011093 0.009803236 -0.018677859 -0.042663332 0.034272686 -0.038551982 0.03249449
can 0.05564947 -0.013057714 -0.05797304 0.020369176 0.053038154 -0.032626078 0.06680881 -0.042258024 -0.055375904 0.026504839 -0.08634256 -0.04860999 -0.0056015947 -0.037053656 0.021404859 -0.120488845
were -0.040668618 0.10165066 0.040254176 0.03341271 -0.0469482 -0.050793882 0.041822203 0.024657713 -0.07296197 0.027044497 0.07718007 0.042486425 -0.09619863 0.094457746 0.052566882 -0.028872833
me 0.06633418 -0.03329339 -0.03433677 -0.115391694 0.07579139 0.034889564 -0.07471216 -0.00613446 0.011376912 -0.021975148 -0.10368027 -0.119178966 -0.015805341 -0.0025184422 -0.05239439 -0.06374311
well 0.16255294 -0.06525341 -0.101283684 -0.1397263 0.1709573 0.15096946 -0.13055114 -0.12140618 0.1471272 -0.06779944 -0.08541309 -0.1554091 0.10279698 -0.046142846 -0.12639241 -0.22126056
than 0.0055697556 0.053384352 0.027432386 0.023057876 0.047162537 0.020987269 0.044778973 -0.017709002 0.010967218 -0.037829902 -0.036501 0.020375347 -0.005652233 0.022341538 0.003240352 -0.017356409
we -0.02304066 -0.023839528 7.07408e-05 -0.040719576 0.02630939 -0.013351878 -0.045532294 -0.032915894 -0.0065044654 -0.03674769 0.021209331 -0.050404653 0.0049227886 -0.025837837 -0.050830524 -0.06295843
much -0.03298626 0.0906137 0.031707354 -0.0387473 -0.053761765 0.0037545273 -0.0026284656 0.0075728525 0.025142623 0.035643406 0.025186347 0.03528127 0.037689965 -0.044221595 0.020957068 -0.0350215
been -0.057329368 0.005073389 -0.009402395 0.014263948 -0.05245053 -0.033588693 -0.024423944 0.057267677 -0.013300958 0.035987437 -0.037973467 0.032617323 -0.06548271 0.0588744 -0.017070808 0.05541924
bad -0.20626897 0.2283568 0.23711136 0.16912097 -0.18345898 -0.16366805 0.19032224 0.20876515 -0.23581506 0.13543524 0.15861982 0.17230543 -0.21036127 0.1753575 0.23249944 0.0047210176
get 0.08816359 -0.010525651 -0.010022604 -0.04635909 0.011099591 0.03630892 0.032003216 0.015037674 0.0038434218 0.015903292 -0.05694022 -0.091101095 0.02293451 -0.047250804 0.03704651 0.02095908
will 0.05769433 -0.031446885 -0.05909099 -0.08643878 0.004721571 0.0013037102 0.00302699 -0.04395032 0.02086108 0.024971848 -0.061245725 -0.069001965 0.040290564 -0.042323064 -0.06820431 -0.04294695
do 0.03741347 0.009043012 -0.014197583 0.021851378 0.02473113 -0.056290943 0.022739025 -0.010617051 -0.0204448 0.022259504 0.03383244 0.041812357 -0.052371647 0.07151694 -0.012192841 -0.045479856
also 0.103974715 -0.04070503 -0.0659597 -0.056969494 0.023386424 0.0264606 -0.026978847 -0.055838153 0.04361125 -0.07703754 -0.12778956 -0.10529673 0.003942247 -0.043979604 -0.109137096 -0.049563274
into 0.023468247 -0.045592714 -0.00982778 -0.1073183 0.078268774 0.017305303 -0.023492122 -0.0879782 0.06612606 -0.03207089 -0.062390294 -0.03791793 0.032022685 -0.030273288 -0.064761646 0.11466537
people -0.070617236 0.0095227435 0.08534546 0.037749443 -0.026284778 -0.051805872 -0.01195843 0.067740306 -0.0040977923 0.012281376 0.04624005 0.06120002 0.029596785 0.023644729 0.054094568 0.019238286
other -0.039652918 0.0013182971 -0.016119873 0.0061201607 -0.0074270866 -0.032903016 0.007541009 0.0063175038 -0.070192575 0.003412731 -0.010395602 -0.006088061 0.0018589902 0.016645145 0.050284326 0.028999018
first -0.0047789444 0.037388712 -0.010700073 -0.0033086173 -0.011466584 0.03572692 -0.0013630781 -0.014741317 0.033312246 0.03984753 0.048313476 -0.030565692 0.0067454786 -0.004590933 -0.021940831 -0.04832335
great 0.12834251 -0.07894505 -0.05612111 -0.12926096 0.13355124 0.05957523 -0.11182229 -0.1052984 0.0429088 -0.14014857 -0.11150691 -0.04515986 0.092275225 -0.06481309 -0.059161983 0.02564516
because -0.102032535 0.053682517 0.042270653 0.06859866 -0.04667322 -0.11647041 0.035087578 0.07773476 -0.07116721 0.09283502 0.046353504 0.075355776 -0.09503049 0.073259726 0.0945096 -0.010615461
how -0.0485236 0.06553864 0.09362326 0.06944936 -0.054770794 -0.10241819 0.08618554 0.08680102 -0.07103998 0.08345982 0.061255846 0.041563027 -0.05724933 0.088063404 0.059315052 -0.02659852
him 0.0007753731 -0.0040481216 -0.083945125 -0.05756953 -0.0037513545 0.06933523 0.021316113 -0.018095845 0.076866455 -0.02373322 0.009999711 -0.054778725 0.048743658 -0.04435522 -0.038997672 -0.05600077
most 0.08988117 -0.12459778 -0.15085618 -0.13868833 0.139659 0.09750599 -0.08557877 -0.1419514 0.15949509 -0.09112868 -0.11978422 -0.0733541 0.12694223 -0.108766794 -0.153147 -0.15384796
don't 0.06846082 0.05240964 -0.04917204 -0.036188483 -0.013899849 -0.035513416 0.067848586 0.0315071 -0.014179702 0.02125811 -0.074610405 -0.035572898 0.024899231 -0.025685862 0.009034469 -0.06967609
made 0.07628857 -0.04763383 -0.0072388584 0.0047878902 0.0106988 0.007927667 0.012732821 -0.042916767 -0.0064464775 -0.06946616 -0.01998214 -0.047701657 0.015871298 -0.0752016 -0.06632437 -0.016909786
its 0.09706345 -0.093371764 -0.10817301 -0.15245478 0.0769264 0.15096189 -0.06744166 -0.10305628 0.12351204 -0.06415023 -0.14846511 -0.114914246 0.10581827 -0.06488162 -0.062468812 -0.12530991
then -0.07399537 0.052419636 0.0049380925 0.017608898 -0.03235261 -0.070850104 0.05942168 0.0043277945 -0.033135504 0.027237602 -0.013713303 0.07308305 -0.04581189 0.057593856 0.07897782 0.028838158
way -0.008491518 -0.06168773 -0.03270859 -0.12050363 0.0100815 0.046279337 0.01919155 -0.012603851 0.026001189 -0.08123196 -0.06365698 -0.0598906 -0.03035225 -0.00032598467 -0.047099322 -0.04514361
make -0.06621865 0.01166297 0.0871232 0.017161198 -0.06672441 -0.059896797 0.07991831 0.035336923 -0.08374918 0.006240801 0.018345702 0.06465055 -0.014356938 0.022125991 0.030835347 -0.012212164
them 0.097098425 0.019965261 -0.10426742 -0.059376992 0.080608636 -0.00034459916 -0.065061875 -0.021620387 0.042013142 -0.030931659 -0.051720943 -0.11361529 0.018446779 -0.02056298 -0.05898509 -0.11855607
too 0.056892786 0.009247349 -0.033358812 -0.05503973 -0.01617361 0.028040161 0.033667743 0.003093664 -0.033285964 0.015728706 -0.03235404 -0.044805616 -0.030883977 0.059905346 -0.042019274 -0.14664707
could 0.0044492744 0.09021296 0.09756917 0.11159662 -0.060645174 -0.022511823 0.11950556 0.11389243 -0.048890296 0.102892265 -0.013647095 0.01608557 -0.103210695 0.059389256 0.047539704 0.011488376
any -0.052970514 0.041416924 0.12295008 -0.015903803 -0.02939275 -0.043305762 0.083573066 0.09009426 -0.10182951 0.06321717 0.0008860942 0.016817078 -0.10842117 0.14014329 0.09292128 -0.010195425
movies 0.049015827 -0.008646141 -0.039232343 -0.0006119724 0.054585762 0.009592871 -0.052721042 -0.004053831 0.0067231595 -0.010371309 -0.050901793 -0.057269655 0.058997568 0.04500045 0.012546261 -0.06809687
after 0.02063784 0.05680562 0.00928653 -0.040081006 0.019307187 -0.045965057 -0.026250789 -0.015578596 0.010092531 -0.006690114 0.04189203 0.0036716035 0.056892544 -0.028658632 0.006356134 0.024785055
think -0.00064732315 -0.025504312 -0.00650188 -0.053039547 0.008998417 0.036392182 -0.026417399 -0.04151535 -0.01931629 -0.04630256 0.02559857 0.021502415 0.055874243 0.020953573 -0.016183414 -0.058341425
characters -0.058350857 0.05865035 -0.004702985 0.021738429 -0.011922045 -0.058925804 0.07696525 0.06668283 -0.052940864 0.069310725 -0.015753211 -0.007531589 0.00057104405 0.027266014 -0.011659296 -0.018901259
watch 0.044095322 0.06614268 0.030118613 0.008138313 0.017042343 -0.04334385 0.017291896 0.066458166 -0.07251669 0.037817284 -0.025414508 -0.0313921 -0.042549133 0.018109594 0.09081795 -0.14102198
two -0.005010332 0.06026448 0.028191416 0.014359923 -0.033488687 0.012553674 -0.007972436 0.036197767 -0.0021909117 0.047749594 0.0017605401 -0.032902073 -0.019609528 -0.022763904 0.019370178 -0.027084986
films 0.1397436 0.018083965 -0.050894152 -0.09772323 0.021249851 0.012569497 -0.018193703 -0.011542459 0.0890522 -0.060909953 -0.10803541 -0.09482643 0.01900938 -0.07710189 -0.06593535 -0.020605052
character -0.064395964 0.054450788 0.05583083 -0.05951914 0.0030400946 -0.039147492 0.036811344 -0.001654139 -0.017372793 -0.009803054 -0.04813012 0.013074823 -0.00433469 0.030621333 0.034537025 0.011997251
seen 0.12745771 -0.02041439 -0.038313985 -0.073950976 0.079962716 0.054755796 -0.027339093 -0.09591144 0.07792615 -0.026696546 -0.11292349 -0.08677877 0.061932623 0.03506894 -0.05823648 -0.0343032
many -0.05891098 0.049086515 0.008167352 -0.0055591487 0.015275769 -0.0054232776 0.017355788 -0.020562112 0.028155403 0.03634624 -0.009389061 -0.05661954 -0.01607823 0.012116657 0.02120861 0.03445381
being -0.08103014 0.008058661 0.026481278 -0.0204311 -0.058320917 -0.06365892 0.01538797 0.004662247 -0.030253196 0.029373053 -0.030044295 0.07777928 -0.045549326 0.05365348 0.017769216 0.049292114
life 0.08924859 -0.034530263 -0.06121526 -0.04592116 0.029947113 0.09767991 -0.102818884 -0.12311196 0.0839828 -0.019524286 -0.024596814 -0.07257423 0.04809685 -0.109185055 -0.072488464 -0.05090124
plot -0.030781515 0.037513856 0.1010163 0.0995165 -0.025797624 -0.07398224 0.08215482 0.061248392 -0.058210365 0.06628584 0.040089324 0.06857159 -0.06184754 0.10521649 0.024462674 -0.049764134
never 0.012375896 0.07572089 0.0007148203 0.038859606 -0.062801085 -0.004137509 0.074459024 0.013661308 -0.06533414 -0.003995727 0.02646065 0.07445038 -0.05624535 0.08726456 0.058302525 -0.03186528
acting -0.029472526 0.07847958 0.06056911 0.011158475 -0.06316888 2.930421e-05 0.0002851754 0.06546702 -0.008492931 0.08439397 -0.012523302 0.0030960268 -0.09074952 0.10368073 0.03965388 -0.0034501827
little 0.017850367 0.04489786 -0.049218394 -0.026729954 -0.0047593494 -0.008881451 0.015697367 0.040679473 -0.01637246 0.077823035 -0.024464028 -0.01955465 -0.008494968 -0.006151315 0.0047437395 0.011505251
best 0.056455817 -0.10762242 -0.09221902 -0.13329415 0.08080897 0.046543784 -0.047393646 -0.099952 0.09253225 -0.03687153 -0.107303604 -0.061719157 0.105807744 -0.079348385 -0.0584051 -0.052471347
love 0.08038365 -0.036781617 -0.10013841 -0.07982213 0.058744993 0.04748117 -0.10885868 -0.05638458 0.028218837 -0.10976407 -0.029180022 -0.010361628 0.0023893085 -0.09048889 -0.028386483 0.03314279
over -0.008308247 -0.0015501151 0.015982028 -0.022208486 0.035911 0.025723053 0.07327034 0.044131618 0.031385995 0.03034219 -0.09876246 -0.08614362 0.047991995 0.024223307 0.005295403 -0.024501165
where -0.048133418 0.011966736 0.059301376 -0.016044227 0.040179618 -0.012580858 0.019982958 -0.002423944 -0.00324674 -0.005972255 -0.057857152 0.014995895 0.02486268 -0.0030916028 0.050560072 0.053288344
did 0.019749578 0.0048469543 -0.049500756 -0.042637344 0.015451194 -0.017989296 -0.068156056 0.0048124916 0.032258976 0.043375034 -0.025495637 -0.050289467 0.05329251 -0.093225285 -0.01047311 -0.05150087
show -0.0038489331 -0.014174093 -0.014183356 -0.019150514 0.037266735 0.08100758 -0.01238196 -0.060949996 0.052029178 0.0046868236 0.019053362 0.025202254 0.09561306 -0.0658185 -0.057317298 -0.012410891
know 0.018090399 0.122024015 0.067266285 0.02495628 -0.038256872 -0.008518819 0.034566067 0.0058715935 -0.07552217 0.021555267 0.008576694 0.005837187 -0.008535214 -9.127165e-06 0.059279606 -0.12894885
off -0.003793653 0.11851434 0.023186428 0.06607451 -0.08378895 -0.039723743 0.14814936 0.08022209 -0.08929889 0.048282743 0.048230004 -0.020701483 -0.07214936 0.084625624 0.050021775 -0.10972611
ever 0.052428477 0.017186183 -0.05548461 -0.01712061 0.021508202 -0.0051530115 0.020919599 0.02316657 -0.00022519595 -0.038464334 -0.093314424 -0.040234104 0.02303074 0.047459863 -0.038101748 -7.146853e-06
does -0.0017106993 -0.045453854 -0.005421698 -0.01721532 -0.0076622306 0.03541807 -0.027015837 -0.0023676523 0.043353204 0.02858467 -0.008708426 -0.029251015 0.036153372 -0.051824737 -0.0651666 0.031565394
better 0.056521513 -0.050900366 -0.04665731 -0.00522142 0.0028068926 0.026675677 0.010523852 -0.05092919 0.026569678 0.0361823 -0.04195349 0.03283207 0.037439212 0.034456287 0.026826233 -0.017412623
your -0.0058408873 0.0435102 -0.0065110982 -0.07070891 -0.004427809 0.03690991 0.05059551 -0.03752756 -0.01575342 0.010936242 -0.090937994 -0.0072508324 -0.03286481 0.017624997 -0.001160375 -0.098612145
end 0.0060467096 0.056988213 -0.030662403 0.019545518 0.009164513 -0.02087776 0.03278772 -0.018581625 -0.007120579 0.00054847274 -0.06541855 -0.03192455 0.04088551 0.0506101 0.03870523 -0.018121378
still 0.04110534 -0.04770092 0.006921669 -0.10605908 0.074197926 0.044706084 -0.06264539 -0.08205544 0.05018073 0.028443437 -0.03751115 -0.06446147 0.016807895 0.040876657 0.011543307 -0.0074977106
man 0.031451844 0.018988544 -0.059492674 -0.07198113 -0.014427638 0.03866486 -0.017207097 -0.035629656 0.039201453 0.06320948 0.0049073743 -0.06946601 0.010407403 -0.02255488 -0.07582235 -0.017259372
here -0.08902156 0.088773884 0.096892156 0.09056146 -0.11986075 -0.11075697 0.12793173 0.11495861 -0.089675196 0.1470056 0.102439955 0.04373401 -0.12857759 0.16837046 0.07470074 -0.013237026
these 0.05422463 0.047715105 -0.04326807 -0.01675156 -0.018756837 0.0057337736 -0.04993306 0.00606749 -0.020319024 0.029255152 -0.0035395513 -0.019100998 -0.029849982 0.01987451 -0.012278945 -0.015116641
say -0.02268642 0.1111934 0.119966306 0.072951846 -0.08441679 -0.10355112 0.13541546 0.07377991 -0.049713016 0.09257675 -0.015508479 0.015451566 -0.1326974 0.07853778 0.06154018 0.048686754
scene -0.029549286 0.06802372 0.03911002 0.062115368 -0.04067744 -0.00740516 0.0287555 0.062092207 -0.033802424 -0.02119904 -0.008926668 -0.012062022 -0.08571712 0.0008995658 0.042644907 0.06426884
while -0.034852922 0.08438269 -0.0066582817 0.0062139076 -0.024548996 0.023488965 -0.0059209308 0.02887545 0.030730926 0.0055308547 -0.012518388 0.03344295 0.024589993 0.056660622 0.07125374 -0.106826186
why -0.0707279 0.13038003 0.09540565 0.056593727 -0.076303646 -0.13885827 0.06634237 0.08343683 -0.12652762 0.06927356 0.057210926 0.038115356 -0.12695044 0.064174876 0.07831696 -0.03215928
scenes 0.031655908 -0.011656639 -0.031698715 0.041892808 -0.021328242 0.009559906 0.042843323 0.06902591 -0.057032656 0.01277753 0.05661043 0.007874755 0.0047586886 0.016618561 -0.0060673174 0.064514
go -0.07899899 0.09026551 0.028175045 0.020721233 -0.03476174 -0.11036197 0.031220408 0.06800398 -0.0650854 0.034445353 0.026952902 0.034510396 -0.1193449 0.104308486 0.043484975 -0.019795356
such 0.018985322 -0.04462176 -0.059799343 0.007102151 0.03142296 0.04553283 -0.035223115 -0.08905909 -0.0047371495 0.015217042 -0.0030547313 -0.06417188 0.055116255 -0.014640323 -0.07689458 -0.07604265
something -0.047052454 0.02856699 0.105561025 -0.051089525 -0.060959436 -0.011612756 0.006657775 -0.0160575 -0.06133992 -0.0019497162 -0.04442135 0.08656018 -0.095243335 0.03004115 0.051485613 0.075721644
through 0.059471987 -0.0018250248 -0.09420287 -0.041554406 0.08969083 0.09999067 -0.02138 -0.03297088 0.05807248 -0.08762107 -0.002846998 -0.0976301 0.04474853 -0.008117705 -0.007726318 -0.16565657
should -0.008695805 -0.031161994 0.057276633 0.02875545 0.02663536 -0.005964854 -0.040012173 0.04331429 -0.014676249 -0.027386816 -0.0021793118 0.011361104 0.03776803 0.04717711 -0.043070782 -0.07917986
back 0.015335081 -0.020207858 0.08978656 0.05441062 -0.052882403 -0.067596205 0.038110416 -0.020248836 0.0049832454 0.009888526 -0.019060541 0.0075471024 -0.03188937 0.021853972 -0.008015841 -0.067113526
i'm -0.056735516 0.12751149 0.070548505 0.058271866 -0.12585436 -0.1255926 0.13012995 0.059801217 -0.049997937 0.028655468 0.084345706 0.024344051 -0.056667708 0.11988254 0.085947804 -0.014184172
real 0.025928946 0.0400277 0.02844314 0.0076098354 0.04568669 0.038395155 -0.032952033 0.034313153 0.018004432 0.05267533 0.019630374 -0.012750334 -0.023896394 -0.016532695 0.013355305 -0.057716507
those 0.015402247 -0.022905955 -0.009590163 -0.06438672 0.053777505 -0.03604014 -0.050900117 -0.04179243 0.0008932249 -0.011491845 0.0004213717 -0.038847197 -0.02036078 -0.0069685904 0.022246014 0.014183408
watching 0.04575625 0.0129954 -0.0063444246 0.016882058 -0.011271225 -0.018874917 -0.0077751176 -0.04513612 0.0046082656 -0.029414108 -0.05137887 0.013232692 -0.045722283 0.054286826 0.056868535 -0.11283863
now 0.050292876 0.06950461 -0.031087024 -0.016402459 -0.0014428687 -0.034405634 0.026300324 -0.050852224 0.009021567 -0.012099238 -0.045851424 -0.028057983 -0.0015109472 -0.025318097 -0.010183336 -0.03315002
though 0.029129947 0.035292648 0.046095733 -0.025947947 -0.044617567 0.037320998 0.012318605 0.009975811 -0.015122673 -0.014656587 -0.004352973 0.004646511 -0.005559734 0.009926325 0.034672897 -0.022810452
doesn't 0.08793887 -0.051719237 -0.015140611 -0.014131041 0.03529405 0.07404768 -0.07279897 0.006756733 0.071942374 -0.07358749 -0.056466497 -0.07433485 0.07299711 -0.018941088 -0.016392892 -0.048756547
years 0.06960018 0.004185137 -0.0132520525 -0.06015772 -0.025968725 -0.017276071 0.024847483 -0.035422638 0.031339776 0.016434332 0.034251772 -0.052416462 0.05939956 -0.037233025 -0.0067254063 -0.02354152
old 0.013932145 0.001990345 0.044041697 -0.0007573374 0.017491845 -0.010968197 0.043103553 -0.01978394 0.032444272 0.00019248272 -0.021776306 -0.004817596 -0.014582841 1.5663107e-05 -0.019714637 -0.013927037
thing -0.030940926 0.035691336 0.058854688 0.039840907 -0.023274334 -0.10368236 0.09689983 0.10299269 -0.02329291 0.099344365 0.10268698 0.026493898 -0.07418107 0.03964515 0.054749023 0.062166046
actors -0.01831987 0.0026438576 0.015383265 0.052534968 -0.0033113419 -0.04349379 -0.0049789 0.04973279 -0.064632654 0.05873425 0.014197216 0.036021046 -0.03297248 0.050872725 -0.002931804 0.03081454
work 0.037815616 -0.08552237 -0.06022658 -0.05196665 0.08509216 0.13837083 -0.106518894 -0.13442996 0.10176664 -0.13250053 -0.14101557 -0.06831723 0.03945232 -0.081073835 -0.120683275 -0.11547234
10 0.23831624 0.06145554 -0.13141802 -0.21944903 0.22435266 0.13409097 -0.13626094 -0.18614191 0.16549496 0.046225134 -0.25405437 -0.23105314 0.2525922 -0.03138405 -0.04480867 -0.4710132
before 0.0044691507 0.01010492 -0.035575286 0.002710251 0.002664122 -0.023618372 0.016572002 -0.049910355 -0.03318377 -0.017756704 0.0049608187 -0.064538255 0.054872736 -0.06538995 -0.0480715 -0.01251681
another 0.032161552 0.040719878 -0.0060627637 -0.0026223504 -0.042699315 -0.044756852 0.016707402 0.045437586 0.028541207 0.047089517 -0.0006849183 -0.029029818 0.015951242 -0.0010103438 0.025093125 0.067766085
didn't -0.034533676 0.059927367 0.10717109 0.111909576 -0.12991194 -0.07191996 0.105612814 0.0670333 -0.12914327 0.066440985 0.06531308 0.10622042 -0.077441394 0.06721408 0.11985898 -0.035051502
new -0.049426477 -0.041843504 0.066230856 -0.03040949 -0.040415075 -0.04352667 0.007697258 -0.01292785 -0.010517041 -0.0058554974 0.0462965 0.00072544673 -0.041677445 0.021360977 0.03831878 0.048961807
funny -0.05180017 0.06584529 0.025411349 -0.027713187 0.018794024 -0.06923185 -0.014194994 0.06629716 -0.078474216 0.034772363 0.0504074 0.039272483 -0.08124958 0.08428377 0.045271587 -0.016921049
nothing -0.0983728 0.06179987 0.08176771 0.08170444 -0.046182506 -0.12851153 0.09657558 0.07086064 -0.12590379 0.050885376 0.07197819 0.03782463 -0.07555016 0.059515603 0.08502921 -0.027120857
actually -0.03173234 0.061294917 0.019099379 0.061836094 -0.01977823 0.005511722 -7.649814e-05 -0.0074602757 -0.009254308 0.025330065 0.016188933 0.049610663 -0.009033156 0.0044802018 0.056719568 -0.06533139
makes 0.07201215 -0.07686591 -0.06313025 -0.09548252 0.047594104 0.10834246 -0.10095097 -0.050106347 0.08812134 -0.06368146 -0.067387305 -0.1069022 0.063379556 -0.03792499 -0.02396179 0.0035491693
director -0.024641804 0.034179524 0.07169609 -0.009459023 0.0106292525 -0.08074263 0.0040000817 0.009951056 -0.081006646 0.047131523 -0.01601792 0.039506257 -0.040397417 0.04506335 0.051711705 -0.023233635
look -0.039139852 -0.013173173 0.022054754 -0.007595054 0.04673092 -0.013198462 -0.010420282 0.0018212299 -0.026754458 0.0489597 -0.0731993 0.02768843 -0.039354183 -0.007924156 -0.0039561726 -0.017975064
find -0.06807888 -0.0040186695 0.01098763 -0.009886033 -0.03920723 -0.019341497 0.076953724 0.01958197 -0.041193552 0.023094062 0.053717706 0.017552182 -0.0699814 0.010256544 0.0038918378 0.0076956474
going -0.0398011 0.004650331 0.024818854 0.049532678 -0.001225002 -0.048156675 0.034802638 -0.0023352278 0.011501929 0.053481784 0.06749486 0.022651047 -0.056384888 0.008934205 -0.0004945861 0.06022514
few -0.060285505 0.07009561 0.051492862 0.029639049 -0.10123249 -0.025446277 0.11527627 0.054187063 -0.0483223 0.13959782 0.08644556 0.02550671 -0.065500855 0.122766346 0.12143184 -0.07909184
same -0.020535642 0.01797617 0.08681341 0.039672002 -0.07662945 -0.06820779 0.030321294 0.102028534 -0.09580549 0.016232438 -0.02036915 0.029200615 -0.058960956 0.06378304 0.026197575 0.035522778
part -0.073029175 0.022818403 0.093559936 -0.0054276586 0.0012974624 -0.070466235 0.050182264 0.05463582 -0.07889886 0.0071493993 -0.041183896 0.009406481 -0.040058598 0.035684563 0.04620301 0.0005661386
again 0.03741516 -0.07091934 -0.029890975 -0.06783801 0.09163859 0.032418575 -0.06638373 -0.06147541 0.04542021 -0.008026631 -0.044470232 -0.08954943 0.036338206 -0.07763929 -0.027084932 -0.14553943
every 0.012965049 0.049292892 0.017352961 0.02439557 -0.009609395 -0.058714915 0.04295823 0.045082893 -0.0806707 0.008972858 -0.012494894 0.01146846 -0.04920622 0.043351572 0.056989938 -0.118171915
lot 0.079754464 -0.017324762 0.0028109602 -0.0010804232 0.04934045 0.0038334024 -0.054929994 -0.018330995 0.02537539 -0.019673212 -0.08462702 -0.012403495 0.057379663 -0.03312852 0.028277546 -0.043495208
cast -0.022164024 -0.029105186 0.027992954 0.013427862 -0.03901176 -0.02283866 -0.0187638 -0.043930233 0.024573322 0.003611016 -0.046951964 -0.051346272 0.0016773344 -0.03664941 0.025203552 -0.010337546
us 0.08097433 -0.028447635 0.0012924366 -0.07614707 0.057822306 -0.022910478 0.008562904 0.006996374 0.040765576 -0.046311986 -0.06323366 -0.025588926 -0.017508412 0.022475194 -0.059067097 0.011965311
quite -0.022316096 -0.008511772 0.067555554 -0.030091876 -0.014906233 -0.021122968 0.020800948 0.039970852 -0.021108842 -0.0057543605 -0.05738981 0.004596824 -0.056087602 0.04501721 0.07258465 -0.0218454
down 0.083110906 0.049352806 -0.06766516 0.011576109 -0.03272761 0.0057590436 0.0027564557 -0.011968012 -0.034637902 -0.030017119 0.02737678 0.0129866125 0.051105425 0.040126484 0.0009765344 -0.049852792
want 0.062804826 -0.03181236 -0.0065029534 -0.011626486 0.014287314 0.0067490814 0.05008739 -0.015556816 0.01617305 -0.009380973 -0.10324424 -0.12273417 -0.027165428 -0.01285373 -0.03269833 -0.013460033
world 0.08988015 -0.06803572 0.0071216603 -0.058051914 0.079664856 0.04816618 -0.054276757 -0.037826102 0.052448817 -0.059999816 -0.07134667 -0.00015881273 0.015376562 0.03314794 0.0040370794 -0.017551385
things -0.049584437 0.0018701473 0.012541874 -0.004759131 -0.059308644 0.007951041 0.052860655 4.4982626e-05 -0.055433434 0.012130278 0.043445647 0.060231216 -0.030152796 0.05662186 0.011890655 -0.0006310552
pretty 0.008254866 0.018566826 -0.033378966 -0.008221577 0.057980392 0.05140872 0.026565978 -0.015019627 0.03483791 0.058516763 -0.038244072 -0.0033640033 0.026236454 0.030074883 -0.051462673 0.03711251
young 0.052024897 -0.07033057 -0.046412714 -0.06415787 0.09051585 0.0052376655 -0.01972882 -0.029578745 0.07545154 -0.07179913 -0.009455905 -0.05667456 0.014729597 -0.09176142 0.00070036156 -0.039938394
seems -0.017862944 0.01606984 0.0058327 0.0038640937 -0.0024355832 0.006366867 0.058590595 0.03825874 -0.024706371 0.055992857 -0.019724185 -0.005894566 -0.056204364 0.094923936 0.03170649 -0.010719987
around 0.05606439 -0.03961881 -0.07359416 0.006356929 0.026234794 -0.013767798 0.004159418 -0.017119301 0.041079607 -0.010187646 -0.015657347 -0.069782615 0.020393362 -0.04344802 -0.012398093 -0.09396231
got -0.06044882 0.0047625657 0.0073611694 0.0454033 -0.031415727 -0.03851768 0.07638115 0.08765129 -0.073503084 0.045591567 0.0324604 0.009048771 -0.020117417 0.03037314 0.08256063 0.020873258
horror -0.043251358 0.08267785 0.05761719 0.0947044 -0.060126644 -0.052304555 0.08812458 0.031139111 -0.067964494 0.12090641 0.0074111787 0.025782958 -0.05397489 0.058148846 0.08704771 -0.010046876
however -0.033143282 0.022686252 -0.006422396 0.008559499 -0.02367483 -0.027805407 -0.04113096 0.03584436 -0.019321553 -0.0030196516 0.021459192 -0.027950441 -0.022003502 -0.006731485 0.033438515 0.057550542
can't 0.1004439 0.032218304 -0.03320099 -0.006721538 0.005402293 -0.018126195 -0.004559563 -0.03205365 -0.04793007 0.06638117 0.016868252 -0.03758282 -0.04376241 -0.015050722 0.034555413 0.012835597
fact 0.055982474 -0.014281982 -0.0003671337 0.0113897575 -0.015869498 -0.009323558 -0.029819075 0.017095644 -0.019260582 0.0709008 0.017996049 -0.06927739 -0.05540433 0.05263578 0.010837184 -0.031872842
take 0.015390669 0.036980666 -0.021783708 0.017413225 -0.030342512 -0.011123158 -0.017098611 0.00028467507 -0.020334203 0.057742927 -0.0070173168 -0.039827313 -0.021286124 0.01320466 -0.0013627253 -0.048028715
big 0.1230396 -0.09331757 -0.07228519 -0.13809508 0.058354728 0.10514784 -0.12658204 -0.04809484 0.12727624 -0.093071625 -0.07480486 -0.099522255 0.11588307 -0.029006975 -0.02129821 -0.012247277
enough -0.12969021 0.049645223 0.11127038 0.07153459 -0.10675239 -0.07289903 0.1292445 0.10520344 -0.13091427 0.080670685 0.022998247 0.060835697 -0.081427574 0.11261553 0.06276546 -0.10472055
long -0.087565765 -0.017508555 0.02745745 0.0756532 -0.0009065057 -0.05869141 0.05852662 0.0466346 0.007852222 0.015492236 0.04789723 0.061298765 -0.013995579 0.042214923 0.07198906 0.013239634
thought -0.062222388 0.0068610795 0.06176121 -0.011514699 -0.06257694 0.02044961 -0.017745337 -0.010331459 -0.0036347061 0.015964169 -0.04530228 0.0049282946 -0.05531922 0.06190987 0.029260885 0.03209495
that's 0.00022304348 0.088388495 0.011134491 -0.012275215 0.0025131197 -0.06954925 0.03954482 -0.012106787 0.009180882 0.036269374 0.03128342 0.028223727 0.0038236952 0.057285182 0.024326563 -0.044749655
both 0.08436647 -0.12057961 -0.08721531 -0.108719826 0.04986376 0.084791034 -0.019925939 -0.11337326 0.08249203 -0.065588795 -0.043691564 -0.040882878 -0.009523556 -0.007391986 -0.06491124 -0.066619545
between 0.05967584 -0.13737723 -0.057458464 -0.14651926 0.119296126 0.07957933 -0.07685145 -0.137348 0.14075077 -0.049778685 -0.08785258 -0.09050393 0.17093548 -0.13335203 -0.1249538 -0.00566056
series 0.100654155 -0.1232245 -0.08779479 -0.13961847 0.13912389 0.08156882 -0.15357782 -0.13641441 0.103486106 -0.10223458 -0.12500447 -0.08070935 0.063247405 -0.033764597 -0.064779475 -0.07345703
give 0.033958055 -0.08315826 -0.03243862 -0.011316624 0.016557518 0.07817969 0.025349377 -0.06955379 0.037739538 -0.029136593 -0.0932197 -0.038214866 -0.003321731 -0.06479095 0.007180944 -0.006990456
may 0.04317474 0.012562569 -0.009281201 -0.020575518 0.040432032 0.04367831 -0.021012139 -0.010404484 0.038458716 -0.07100486 -0.09250324 0.007077569 0.012838627 0.020984853 0.000107568805 -0.12663588
original -0.054028235 0.039100528 0.032250058 0.05098288 -0.026319148 -0.0038911793 0.024068872 0.026726564 -0.054747894 0.039789375 0.039214883 0.006954205 -0.07844821 0.009814385 0.025581911 0.06580985
own -0.0019104367 -0.030653983 0.017485537 -0.025872393 -0.022055017 0.0022060333 -0.042198565 -0.066191085 -0.009188264 -0.019703042 -0.048233658 -0.03585553 -0.016690377 -0.0403138 0.029370451 -0.0065127914
action 0.15322451 -0.031992 -0.06654557 -0.10234809 0.17155395 0.08070904 -0.15364023 -0.07720663 0.109992504 -0.14287046 -0.13594994 -0.11376491 0.17379421 -0.10964788 -0.14155887 -0.06484056
i've 0.048185345 -0.0076715075 -0.0033587317 -0.023742283 0.037060726 0.064979725 -0.07033465 -0.013682572 0.037738416 0.017395811 -0.07841727 -0.0493104 0.022255614 -0.019446682 0.021711323 -0.15590933
right 0.058141436 0.032713678 -0.00890706 0.051630687 -0.06644698 -0.05485967 0.057223406 -0.00535933 -0.04140764 0.10649692 -0.031445306 0.024415856 -0.004306615 0.04570978 0.05619526 -0.028166525
without -0.008568791 0.017925866 0.047715243 -0.08196608 -0.01033466 -0.009790226 -0.048510008 -0.044943858 0.060295362 -0.02455057 -0.037443377 -0.02976632 -0.027113076 -0.03314974 -0.046220407 -0.026474928
always 0.16451386 -0.10390691 -0.09669107 -0.12676999 0.18036872 0.15262732 -0.1661358 -0.11394717 0.12687877 -0.1512622 -0.08717457 -0.0890878 0.10414028 -0.1419961 -0.10192465 -0.042406827
times 0.075037315 -0.090402775 -0.029313013 -0.07716001 0.09109322 0.06350814 -0.0529855 -0.10512355 0.027885856 -0.09527214 -0.11832689 -0.04840703 0.06311832 -0.07655698 -0.021116627 -0.05859536
comedy -0.024598034 -0.09278366 0.0461081 -0.10433609 -0.016334685 -0.027810818 -0.013627131 -0.0055158897 0.04020488 -0.044180464 -0.04285378 0.014200875 -0.0027451932 0.09028886 0.036782146 -0.084956735
point -0.12579942 0.08660059 0.053839684 0.027646616 -0.11236639 -0.12125004 0.044688057 0.09608758 -0.049205635 0.06705479 0.09783856 0.059333548 -0.11601627 0.11959777 0.09608788 -0.013368828
gets -0.04859975 0.02564596 -0.013198852 0.030484715 -0.059781983 -0.005779012 -0.015971964 -0.01379049 -0.04387782 0.074871294 0.04372008 0.016638253 -0.06144056 0.009553634 3.1088595e-05 -0.06285086
must 0.01679602 -0.012201025 -0.024869427 -0.07025428 0.03930259 0.06176769 -0.008170803 -0.050833054 -0.005292028 0.031210154 -0.009630364 -0.017462755 0.041064337 -0.010754903 -0.018730234 0.008114491
come 0.029256323 0.061812006 0.08249832 -0.008702233 -0.024993952 -0.0033046387 0.06281388 0.059395824 -0.07158337 0.06776069 -0.038494 0.009767524 -0.07062639 0.03814204 0.06420985 -0.000311059
role -0.00416934 -0.018446732 -0.037374973 -0.03990472 -0.009318099 0.02626699 -0.02332658 -0.024985284 0.029153157 -0.034818795 -0.0024213488 -0.025045402 -0.010396209 0.02234408 0.002294039 -0.05574256
isn't -0.005921726 0.030145362 0.009519203 0.059477914 -0.06111277 -0.07381595 0.03771299 0.060900006 -0.07987293 0.045874033 0.03813954 0.041611955 -0.064571306 -0.006535963 -0.00010459851 0.050671093
saw -0.016984463 -0.015164473 0.0005015036 -0.03493282 -0.03304316 0.052726492 -0.020554448 -0.04466945 -0.0144231655 -0.022124952 0.025864625 0.02928782 -0.011623411 0.036949802 0.01233055 -0.03604584
almost -0.03144796 0.0006495947 0.009709488 -0.081280835 0.033119485 0.054339852 -0.036932092 -0.026118824 0.057862587 -0.027194228 -0.05386323 0.021826245 -0.024601573 0.017561443 0.019553555 0.04562109
interesting -0.013467691 0.038685795 0.094827324 0.05523516 0.02178045 -0.027967803 -0.0053187893 0.050893415 -0.02569389 0.05171615 -0.0524316 0.027884083 -0.01872146 0.033536397 0.08790991 0.027556362
least -0.08949214 0.11555148 0.08450118 0.03970626 -0.07854618 -0.1253907 0.09110129 0.13810426 -0.13472855 0.06988473 0.03166984 0.013940829 -0.13871789 0.08612659 0.15125802 0.019940473
family 0.13977745 -0.108646445 -0.050775547 -0.046866514 0.08973949 0.0435348 -0.10398553 -0.040903263 0.10706533 -0.068639666 -0.059809923 -0.10100468 0.107492305 -0.08738949 -0.060172725 0.058898162
done -0.048901048 -0.0049938345 0.033109494 0.031903375 -0.067365445 -0.030973809 0.043274313 0.0046998495 -0.07451119 0.053208303 0.065313585 0.031201592 -0.055523224 0.10417554 0.057381652 0.02427232
there's -0.02283304 0.055088714 0.05593072 0.0602721 -0.06153421 -0.08136329 0.018699462 0.066487566 -0.03770609 0.051200908 0.0428866 0.04330634 -0.011451555 0.08106364 0.0013346213 0.043662168
whole 0.053959377 -0.0661848 -0.0529088 -0.06182449 0.07243312 0.0819195 -0.004484099 -0.0063506016 0.020736918 -0.011909641 -0.03456891 -0.058118183 0.10519468 -0.08976426 -0.10234016 0.06110152
bit 0.039908174 0.0036087264 -0.050125405 -0.03159797 0.010085731 0.0068432163 -0.075754516 -0.043288827 0.06749828 -0.083357915 -0.025569137 -0.03967982 -0.02816588 0.0010124469 -0.061426494 -0.038206734
music 0.07646902 -0.0029355239 -0.04946342 -0.05303156 0.07293255 0.11271897 -0.033414442 -0.11832809 0.09100005 -0.05069147 -0.067842245 -0.11076809 0.06676042 -0.06738318 -0.12254532 0.04387564
script 0.009315975 0.10651262 0.019757012 0.062997185 -0.0515204 -0.0714983 0.10522995 0.076375015 -0.010729895 0.032379474 -0.03554619 -0.021487027 -0.022945723 0.04248141 0.050961398 0.027187644
far 0.057883643 0.0009932785 0.053351164 -0.011674901 0.0174511 0.041382205 0.03671396 0.04912233 -0.037744727 0.04847874 0.022810386 -0.004167623 0.042539433 0.03647794 0.0003420672 -0.14683598
making 0.086074896 -0.06268262 -0.12051664 -0.01476394 0.11787404 0.09062662 -0.0459032 -0.049241807 0.016351543 0.005466927 -0.047770787 -0.092898145 0.08161282 -0.06379975 -0.05626742 -0.01297555
guy 0.089325085 -0.039465666 -0.09417251 -0.040526215 -0.016678423 0.03678845 0.00391788 0.009724271 0.04017769 0.019790465 -0.010270247 -0.09545974 -0.000754846 -0.032734293 -0.060090493 -0.027853062
anything -0.025912708 0.11145235 0.06642725 0.026991956 -0.041690197 -0.05746796 0.034953717 0.049265485 -0.11198224 0.10900966 0.067708164 -0.016565654 -0.086577244 0.094932914 0.08207389 -0.030958697
minutes -0.04968657 0.047648564 0.09196487 0.037167773 -0.10064606 -0.084436454 0.099335864 0.022224545 -0.10171246 0.06377601 -0.02435056 0.06550927 -0.04526144 0.16164824 0.053173237 -0.16496429
feel 0.04079436 -0.040934406 -0.050749224 -0.051203556 0.07747355 0.09735546 -0.048834965 -0.04907526 0.031993 -0.10491487 -0.10849411 -0.07137653 0.03560376 -0.085390024 -0.07737915 -0.023839556
last -0.053958166 0.06684512 -0.014631646 0.056183964 -0.057015367 -0.08539321 0.012631803 -0.0030755512 -0.09251764 0.06979535 0.045173153 -0.009915005 0.009265354 0.04247729 0.044501185 -0.034482155
since 0.05641099 0.0001768808 -0.04191943 0.004946548 0.081156835 0.01687065 -0.072934665 -0.05824741 0.013736262 -0.04400919 -0.049863424 -0.06561176 0.10402656 -0.04982787 -0.028211482 -0.017517682
might 0.04009065 0.0127430735 -0.054413978 -0.053562634 0.0036545906 -0.012212587 -0.03954688 -0.011115012 0.061238997 0.016320176 -0.050689396 -0.06303109 -0.041461013 -0.031208647 -0.035292994 -0.00038074597
performance 0.009495764 -0.030491093 0.03826305 -0.016703734 -0.05458679 -0.0266451 0.009450182 0.0023872026 -0.03189485 0.040534012 -0.028041624 -0.012022562 -0.013798195 -0.01986002 -0.009024293 0.060529526
he's -0.068565965 0.04424011 0.041876927 0.038504325 0.010895331 0.022434648 0.065220356 -0.020144794 -0.023441894 0.020034166 -0.011931948 0.031942293 0.007086789 0.050224528 0.061502445 0.09145072
2 -0.09871202 0.14493488 0.06383267 0.063018195 -0.09392291 -0.10712102 0.12820892 0.17651512 -0.17195912 0.119130716 0.048057914 0.04625031 -0.17144571 0.13908795 0.18930258 -0.02185598
probably -0.020270979 -0.014874961 0.086944446 0.04068561 -0.012328973 -0.0022915239 0.017802957 0.08008457 -0.0059529063 0.039087877 -0.03908848 0.071728006 -0.10578589 0.042874686 0.090049066 -0.045541044
kind -0.007985601 0.026370779 -0.0049977135 0.009836368 -0.07729239 0.0065943166 0.052573737 0.018864071 -0.07078061 0.02657686 0.060807534 0.010323027 -0.050563958 -0.011183062 0.06526963 -0.01895698
am 0.03354967 -0.008394087 -0.07668415 -0.08658458 0.08504559 0.047658164 -0.046407264 -0.072311394 0.06767003 -0.025115684 -0.025227033 -0.008486943 0.0102010295 -0.041716464 -0.037052307 0.0596275
away 0.0057159457 0.026592843 0.0729207 0.022423893 -0.059201922 -0.08174082 0.021232234 0.018523807 -0.025127998 0.023609165 0.02180826 0.0023445995 -0.041642614 0.10079976 0.074855424 -0.020294303
yet 0.03447023 -0.12024692 0.026810262 -0.04945884 0.060140833 0.06924566 -0.08043814 -0.047902577 0.013299567 -0.012482249 -0.0351922 0.018931575 0.037619025 -0.023070816 -0.02983009 -0.027814554
rather 0.042916242 -0.07050514 -0.067857146 -0.036067124 0.08988786 0.046637703 -0.020788634 -0.046884462 0.039871674 0.02166873 -0.009193889 -0.028305786 0.05104608 -0.07651636 -0.0054444075 0.08675839
tv 0.03513092 0.04587526 0.057651404 -0.0054842844 -0.04686535 -0.032710306 0.06199761 0.06189637 -0.035614848 0.03318952 -0.023271423 -0.017826553 -0.057729222 0.04220133 -0.009248136 -0.023688866
worst -0.12291622 0.1075347 0.18346241 0.034941737 -0.15837058 -0.15130298 0.110399224 0.115042046 -0.16817936 0.08408121 0.111102 0.119024985 -0.17709894 0.18910408 0.1628532 -0.109821804
girl 0.06071042 -0.000854323 -0.07507839 -0.009858695 0.08421763 0.05292693 -0.009467567 -0.013508822 0.057381973 -0.020831123 0.00036351074 -0.08052284 0.03766708 -0.004014639 -0.085408986 -0.014811624
day 0.06452866 -0.045323912 0.017700078 0.02042949 -0.0089139 0.006387285 -0.060732227 -0.07497976 0.03759583 0.009138768 -0.037104044 0.004185853 0.04028218 0.013032923 -0.04226357 -0.08559998
sure 0.07734909 -0.0057361675 -0.011488212 -0.008204039 0.035997096 -0.011731505 -0.018495478 -0.062321316 -0.009654197 0.05198342 -0.025836648 -0.008441382 0.08498572 -0.042164166 -0.065038376 -0.06986196
fun 0.06332094 0.027644567 -0.011544775 -0.05172118 0.08092081 0.05334081 -0.09315236 -0.077088125 0.0014078163 -0.060431037 -0.069122486 -0.060591143 0.077654205 -0.027705844 0.010398131 -0.08638655
hard -0.08238458 0.085834324 0.059398577 0.029789647 -0.024221586 -0.09897241 0.09766252 0.03616394 -0.006973879 0.064288154 -0.017012384 0.06339856 -0.044132296 0.03528686 0.08939691 -0.043917242
woman 0.05721746 -0.03977506 0.009242368 0.0036640242 0.006885723 0.018576352 -0.04464687 -0.049003754 -0.013400799 -0.034106508 -0.015582247 -0.01253991 0.016712058 0.043734852 0.024607975 -0.008396917
played 0.025237145 -0.029897215 -0.051038846 -0.0878278 -0.002738918 -0.026612582 0.025363188 -0.044379104 0.04545297 0.026999502 -0.0062803496 -0.06958517 0.068981595 -0.024741855 -0.021961635 -0.014787255
each 0.0745336 0.03298553 -0.06958646 0.01772105 0.045482155 0.027018333 -0.041883435 -0.013906701 0.06628501 0.025334109 -0.05350277 -0.017971769 -0.007274413 -0.019736452 -0.06679712 0.047508676
found -0.058527093 0.016046124 0.07548461 -0.00021923281 -0.016809303 -0.035874464 0.005116741 0.037039626 -0.006807947 -0.0058299424 0.022610249 0.029461931 -0.090084955 0.021512633 0.042604193 -0.039707426
anyone 0.1491069 0.054602638 -0.04319575 0.04302384 0.021394989 -0.006666795 0.07090438 0.002743988 0.020428048 -0.010156685 -0.060774725 -0.11138145 0.0048977076 0.035333503 -0.00632297 -0.072902635
having 0.07677578 -0.03366381 -0.033910584 -0.026245192 0.03253079 -0.0074532065 -0.030282369 -0.06103459 0.011189722 -0.061972298 -0.07406805 0.0006580512 -0.017950928 -0.038703818 -0.067460716 -0.008790811
although -0.03352728 0.052139197 0.012425899 0.10200826 -0.09512392 -0.058425214 0.103310004 0.078419395 -0.10109722 0.03650856 0.02758197 0.051262405 -0.07220693 0.039499693 0.10261752 0.008897719
especially 0.048445113 -0.018813608 -0.025374467 -0.110184334 0.10377533 0.018398495 -0.025928522 -0.0728035 0.061681304 -0.038500864 -0.074392766 -0.04163082 0.03919477 -0.05176683 -0.052964725 -0.0006296158
our 0.11404555 -0.07126879 -0.14084625 -0.11140307 0.08946674 0.15555723 -0.08290978 -0.14341025 0.11663735 -0.0937865 -0.15999545 -0.17133047 0.1376671 -0.1396613 -0.11444314 -0.038752034
believe -0.054726686 0.062334817 0.08414406 0.0049425513 -0.008936778 -0.052702527 0.03750005 0.08241657 0.009075575 0.002486296 -0.04827567 0.05291811 -0.004410856 0.07647668 0.0525882 0.041749418
course -0.015872136 0.013155026 0.022969306 0.01942472 0.020814806 0.014656626 -0.033643026 0.0036864183 0.031913258 -0.024208015 -0.08497132 -0.087986276 -0.014176642 -0.008689381 -0.057690695 0.055127855
comes 0.031449333 0.033499733 -0.04805884 -0.0062798155 0.017086195 0.044839405 -0.028371612 0.02009228 0.055328637 -0.03138794 -0.0417989 -0.019127963 0.048906982 -0.018474568 -0.060257018 0.10149022
looking -0.08119238 0.057866458 0.012572204 0.025123272 0.012065149 -0.061388083 0.0078112697 0.012218372 -0.01929556 0.047433097 0.019043857 0.04277561 -0.03072974 0.040550284 0.08926281 0.029381396
screen 0.05149655 -0.053085804 -0.11232341 -0.08271986 0.10489599 0.024091505 -0.022670377 -0.08659311 0.07276167 -0.011460624 -0.04522505 -0.051488977 0.062094778 -0.047318082 -0.053099062 -0.07640711
trying 0.015910204 0.049344946 -0.032662567 -0.03996509 0.05033016 -0.0043482664 0.050056975 -0.0002864356 -0.047794957 -0.0040215845 -0.041052278 0.014010313 0.011029884 0.043725736 0.038360674 0.03778309
set 0.05811198 -0.01218501 -0.038623013 -0.042278215 0.017982936 0.06067563 0.027893148 -0.029393962 0.07292061 0.05987691 -0.073328674 -0.11983192 0.05730295 -0.09303232 -0.08827434 -0.034084592
goes 0.062018123 -0.038739517 0.007257089 0.008015536 0.032011725 0.06422264 -0.012997144 -0.029061256 0.010666212 -0.056524236 -0.03635241 0.018797405 -0.012858418 0.02342461 -0.060225427 0.018624406
looks 0.0257698 0.025488466 -0.07847452 -0.019831397 -0.009210527 -0.0062525263 0.013279977 -0.06302461 0.05859542 0.030964065 0.025012456 0.014132928 0.014715599 0.016378589 -0.06263175 0.07235561
place 0.06903272 -0.04042368 -0.14296666 -0.10492892 0.040616136 0.11537792 -0.027798485 -0.09347617 0.09181987 -0.028607164 -0.09611291 -0.04283681 0.1261016 -0.060143117 -0.03446742 0.015669756
book 0.0026537606 -0.02966279 -0.02544232 0.04097148 0.030433247 0.01747086 -0.011266822 -0.04367408 0.046079867 0.0018987333 -0.03882703 0.030744197 -0.057318527 0.020772532 0.03288091 -0.028957214
different -0.010308748 -0.032765068 -0.04454381 -0.064655736 0.05265438 0.028947638 -0.07414817 -0.032561082 0.04150379 -0.07598007 -0.12169284 0.0037598282 -0.015460932 -0.028279142 -0.063113675 -0.009433247
put 0.14336453 -0.06913474 -0.07421318 -0.09498012 0.08160072 0.10419962 -0.1710389 -0.16504608 0.105151914 -0.060316555 -0.16510761 -0.16517799 0.12470429 -0.103704445 -0.13809505 -0.05429916
ending 0.08800981 -0.09047383 -0.14001523 -0.10857001 0.075311735 0.08161584 -0.0597957 -0.07629342 0.052594993 -0.13415541 -0.1328272 -0.108742975 0.08485341 -0.08743205 -0.12769149 -0.0441822
money -0.028661065 0.07095969 0.08360654 -0.0008049073 -0.047295604 -0.007910671 0.10135193 0.057270624 -0.023005467 0.03536327 0.018780729 0.020670354 -0.02523742 0.107094906 0.057331644 -0.120938875
maybe 0.09451966 -0.0748889 -0.07545929 -0.04560119 0.006003119 0.058703847 -0.06296548 -0.047194414 0.09084846 -0.027275316 -0.06583598 -0.028469177 0.075010784 -0.0773852 -0.032969214 -0.048645575
once 0.14316134 -0.036064584 -0.12924528 -0.10529288 0.13731669 0.14471729 -0.057648003 -0.08903741 0.09394501 -0.09207196 -0.086068414 -0.08294164 0.13759798 -0.16011699 -0.115879744 -0.019037846
sense 0.010914936 0.10606596 0.041477773 0.0043729465 -0.040749792 -0.0252835 0.064843304 0.069211185 -0.06836024 0.05182272 -0.0075869276 0.01417275 -0.0841559 0.056584276 0.06595884 -0.045535617
reason -0.0545054 0.035823442 0.111600205 0.08064015 -0.08740829 -0.10601744 0.09001383 0.08150793 -0.08302657 0.03240664 0.0585151 0.042558815 -0.15142083 0.12561947 0.11329886 0.037266035
true 0.073845044 -0.0074624834 0.016760113 -0.022792304 0.058513485 0.06932306 -0.07103132 -0.025343979 0.004608486 -0.035538238 -0.04559248 -0.06344334 -0.0092266565 0.0015443768 -0.053469557 0.00052753394
actor -0.04073857 -0.06689076 0.0138155045 -0.014364283 0.0130939 0.011981072 0.023083717 -0.07460064 -0.0010655643 0.024319738 -0.054501545 -0.062383153 0.056436963 -0.050683323 -0.036287628 0.0032207116
everything 0.047066815 -0.0412585 -0.041742772 -0.009293267 -0.0065078717 -0.0045856074 -0.003179499 -0.015915005 0.03915512 0.019977637 -0.050584115 -0.033666763 0.057753064 -0.050111987 0.013023592 0.011599038
wasn't -0.083462074 0.041267496 0.108896255 0.00022691413 -0.081861585 -0.09237543 0.12076194 0.09159877 -0.06346092 0.019487172 0.03315743 0.023102846 -0.038186017 0.08917889 0.12351257 -0.10231071
shows 0.07160444 -0.007531352 -0.034976628 -0.028514232 -0.01872519 0.040006857 0.0032188687 -0.00731321 0.01673588 0.019942213 0.0047310344 -0.08416857 0.055906083 0.031922806 0.024175778 -0.04084955
dvd 0.031770635 -0.03880826 -0.037493084 -0.09541473 0.09297006 0.07070491 -0.07987771 -0.07574311 0.005300631 -0.015896972 -0.09452674 -0.07613366 0.093716614 -0.08302343 -0.08039488 -0.11796274
three 0.0010345128 -0.0029168974 0.0050720656 0.015325584 0.018849704 -0.02265771 -0.04816261 -0.010814416 -0.027272934 0.019034807 -0.06093116 -0.036305662 0.052146487 0.0063136984 -0.05306348 -0.010436532
worth 0.15258208 -0.066432856 -0.10290047 -0.14678232 0.097001754 0.15072939 -0.118348226 -0.15298545 0.10739332 -0.020799119 -0.17394646 -0.09007682 0.16052233 -0.119858645 -0.09376673 -0.19348511
year 0.08960049 -0.084213324 -0.06067548 -0.08787969 0.07012864 0.04478371 -0.091908164 -0.08502024 0.11279342 -0.106109194 -0.050977882 -0.10637567 0.05345601 -0.038539607 -0.081582054 -0.15196615
job 0.050300132 -0.08820513 -0.018388145 -0.06747522 0.044066202 0.07709016 -0.056290448 -0.07935369 0.08867441 -0.01682591 -0.025729405 -0.03680808 0.03879991 -0.05631278 -0.05061069 0.033650003
main -0.020073138 0.10817281 0.00536142 0.004389268 -0.008092557 -0.08770439 0.043390296 0.013277164 -0.08759108 0.01566906 0.0041582156 -0.037572693 -0.010402927 0.08689722 -0.008554914 -0.10117673
someone -0.02375645 0.06802192 0.015699022 0.06984348 -0.109170415 -0.11141759 0.09828507 0.075991005 -0.06454372 0.013962563 0.08206009 0.1028472 -0.048790734 0.08527314 0.1182781 -0.0035657687
together -0.022556989 0.06848655 0.017583326 0.02669447 -0.07453817 -0.025341863 0.07851307 0.06594262 -0.029423028 0.0024300127 0.0530737 0.0185291 0.012528575 0.055733293 0.07871433 0.079875745
watched 0.11636598 -0.20140104 -0.063444465 -0.16340914 0.14348875 0.09889099 -0.14283185 -0.142287 0.16642213 -0.105529755 -0.11454319 -0.0813166 0.12622237 -0.029175017 -0.15227666 -0.039151803
play 0.00976601 -0.002096468 -0.07429289 -0.06539122 0.010823314 -0.011772547 0.00041130287 -0.059642866 0.019944413 -0.024138743 -0.058537822 -0.07576289 0.081237495 -0.05090232 -0.04305896 0.032442585
american 0.045262776 -0.0412388 -0.015620047 -0.0033929767 0.013632267 -0.014685377 -0.03588797 0.005033615 0.0066567347 0.0080181705 0.024815507 -0.039858274 0.035763856 -0.035078183 0.0047402577 -0.0766856
plays -0.04619518 0.07671056 0.111899614 0.06131484 -0.09412201 -0.100419186 0.10307091 0.11032293 -0.027730588 0.023092186 0.032074235 0.011847127 -0.06665063 0.03603052 0.081598654 0.055690262
1 -0.053415935 0.11146533 0.054577917 0.0074340594 -0.09672974 -0.107762545 0.041134324 0.016825411 -0.12016995 0.09486115 -0.0021173744 0.09352503 -0.12354473 0.12199485 0.084266305 -0.19174522
said -0.030944727 -0.019781066 -0.039189506 0.036876444 -0.02710793 0.02719614 0.03766523 0.047291405 0.019654647 -0.0139900325 -0.053272054 -0.015923943 -0.033187356 -0.015051506 0.037463397 0.052168895
effects 0.07550218 -0.011662878 -0.05090177 -0.05993823 0.042002656 0.08644842 -0.025795879 -0.0133916335 0.024809778 -0.065674886 -0.01774943 -0.057694774 0.05765973 -0.034910973 -0.05837206 -0.07017715
later 0.024053443 0.014006753 -0.02693286 -0.02037465 0.045393094 -0.0036031303 -0.056616656 -0.014654074 0.030123996 -0.01865995 0.03933536 0.0012926725 0.00013844504 0.03296592 -0.031529393 0.011647681
takes 0.027436389 0.033456285 0.037683494 0.000199628 -0.034286786 -0.054054227 0.024548205 0.09655824 -0.026791863 0.030183848 0.033434287 0.071970806 -0.11139085 0.078032985 0.07870208 0.068432264
instead -0.06570226 0.08617891 0.0704157 0.102114506 -0.13536686 -0.12017789 0.1374984 0.12074793 -0.15731353 0.12830764 -0.00239507 0.06415055 -0.10934816 0.1346768 0.14907184 -0.009616678
seem 0.014213021 -0.009789575 0.06121913 0.042423494 0.0036916307 -0.050154854 0.022658838 -0.001477012 -0.03078595 0.036407206 0.039101105 -0.015332831 -0.071960196 0.01688167 0.051578823 -0.056644354
beautiful 0.10518938 -0.090551406 -0.13850234 -0.12963785 0.10917818 0.15996413 -0.11311892 -0.08549195 0.16257457 -0.11278763 -0.1651116 -0.13169603 0.12905039 -0.08875139 -0.12773938 -0.044956
john 0.034537654 -0.12699176 -0.09994736 -0.124924876 0.084939405 0.06700411 -0.11085748 -0.08662964 0.093022875 -0.08312959 -0.12405866 -0.07503191 0.027992325 -0.104568765 -0.12541452 -0.10576701
himself 0.034559682 -0.058944575 -0.03063296 -0.014457404 0.054246213 0.08919266 -0.05959011 -0.077665836 0.004402818 -0.04539125 -0.072045036 -0.11031225 0.014975048 -0.011883531 -0.025655963 -0.05894059
version 0.10050629 0.04853524 -0.039874334 -0.04033409 0.025062267 -0.014220142 0.010390277 -0.002080175 0.00018571306 -0.008938728 0.029953845 -0.028827455 -0.037540026 -0.03331034 0.042470533 -0.069111995
audience -0.011151386 0.038983807 -0.01845995 -0.004933192 -0.013040021 -0.015701175 -0.0062331473 0.038875666 -0.018057616 0.07391284 0.05003397 0.033684213 -0.013455463 0.013822333 0.061574463 0.06762677
high 0.014028619 0.0555991 0.04752274 0.032360308 -0.06783226 0.017661626 0.009106898 0.013048978 -0.04589857 -0.025115833 0.040766954 0.030569011 0.0019012433 0.057244487 0.006817739 -0.018781755
house 0.02715924 0.033499524 -0.030930243 -0.060362615 0.028542174 -0.0070293983 -0.053835265 -0.047255673 0.056582224 0.034758363 -0.013742908 -0.047735587 0.028023977 -0.07220511 -0.08259501 -0.05190031
night -0.031415362 0.05474758 0.06301757 0.045353755 -0.025781265 -0.0044846307 0.08516376 0.06353614 -0.029389266 0.07132609 -0.009318541 0.01106891 -0.046579137 0.056749556 0.02960196 -0.012426679
during -0.0058505316 -0.031685203 -0.011021409 -0.0865791 0.041407853 0.05624896 -0.001413177 -0.052353144 0.024300067 0.0017497535 -0.03889967 -0.01601448 0.028339576 -0.0792359 -0.06438852 -0.018392092
everyone 0.027489131 -0.034370605 -0.058415286 0.034227714 0.049259014 0.06603867 -0.07417138 -0.04366272 0.020797929 -0.034538757 -0.01823834 -0.008749197 -0.029673707 -0.058331344 -0.04856478 0.0021280907
left -0.10626025 0.124746576 0.10013254 0.045502327 -0.07165278 -0.10727366 0.11720495 0.060239736 -0.12002545 0.06368965 0.09203955 0.04559022 -0.0847778 0.06944813 0.131947 0.020128252
special 0.040108033 -0.09389515 -0.121109344 -0.10218824 0.08533524 0.06579417 -0.12501135 -0.09148345 0.040198978 -0.10523794 -0.04181047 -0.104638785 0.0727707 -0.032309536 -0.04064836 -0.05319895
seeing -0.015286661 0.04608273 0.07139604 0.0011198702 0.023210455 0.0013046508 0.053343873 0.037268005 -0.05213578 0.029369757 -0.04549678 0.04224938 0.0038203062 0.04897237 0.033995572 -0.15030509
half 0.011827129 0.09303243 0.039937526 0.048932664 -0.089784786 -0.037166473 0.0766581 0.06967248 -0.100095004 0.033549126 0.018287158 0.05456323 -0.109589644 0.06231144 0.057018455 -0.05743643
excellent 0.16257308 -0.035549447 -0.13689484 -0.1357773 0.13910817 0.11847277 -0.08045481 -0.11743232 0.116848625 -0.06919091 -0.05790963 -0.1304113 0.08323338 -0.13715334 -0.15298001 -0.031614523
wife 0.014113938 -0.00036910232 -0.05956929 0.025748549 -0.04242021 -0.022627931 -0.0149048325 0.014530453 0.017751656 0.0665344 -0.009234727 -0.047937695 -0.01331735 -0.034548253 0.01502057 -0.046819836
star 0.020098465 -0.0021390922 -0.0493784 -0.030036908 0.008178697 0.0043945606 0.04619246 0.04235336 0.00212175 -0.025629021 0.023902582 -0.047510818 -0.037320368 0.039403334 -0.042187367 -0.054672472
shot 0.034267895 0.08888673 -0.022717683 0.01375341 -0.034231152 0.043930374 0.019978993 0.054867275 0.034164365 -0.010013289 0.014496115 0.019804837 -0.043774072 0.03565849 -0.009147887 -0.082153246
war 0.04385859 -0.06246907 -0.048453923 0.01131331 0.058414824 0.08362293 -0.047048606 -0.07399049 0.0925478 0.0036622765 -0.09418978 -0.02591476 0.024505407 -0.011985884 -0.034015864 -0.08800433
idea 0.13218722 -0.08788898 -0.0881863 -0.06532261 0.119028874 0.04842827 -0.10865839 -0.09299858 0.05247487 -0.07766735 -0.05976824 -0.09498698 0.1292106 -0.099753894 -0.094616055 0.03943378
nice 0.092623055 -0.0130417785 -0.06705042 -0.06089505 0.07678208 0.119927935 -0.04269126 -0.05812283 0.09884135 -0.026677907 -0.11089115 -0.09651062 0.0818169 -0.04074733 -0.05928203 0.062764816
black -0.029308187 0.009153883 0.034808468 0.017332543 -0.07171453 -0.065411404 -0.0025391872 0.061496675 -0.06661928 0.07928804 0.005276801 0.053977396 -0.05189178 0.039741363 0.0027214482 0.011583354
less -0.06615563 0.0554401 -0.022373473 0.04803803 -0.030027857 -0.08181021 0.037653055 0.09130181 0.004264767 0.048008762 0.024224265 -0.051684495 -0.030874236 0.0349547 0.019095348 0.036202166
mind 0.13845402 -0.05037941 -0.09392726 -0.1427245 0.09055598 0.14618587 -0.15310913 -0.13544153 0.1005862 -0.10762479 -0.07455791 -0.091573775 0.13306387 -0.16435656 -0.14914995 0.04737857
simply -0.15018184 0.110706545 0.09154333 0.045720115 -0.10060649 -0.06375862 0.15159608 0.09289036 -0.060262483 0.1139262 0.016950045 0.04440246 -0.1602771 0.057390686 0.14172128 0.071345136
read -0.072799504 0.009288869 0.06380935 -0.04041519 0.022790493 0.033951502 0.030046497 0.035976935 -0.0016540716 -0.02873083 -0.033542033 0.048035085 -0.05104352 0.08307041 0.04293843 -0.0049297893
second 0.0026982974 0.015024748 -0.0693112 -0.033424053 0.002521222 -0.020792907 0.039852522 -0.04441123 -0.0033641336 0.032028373 -0.027519394 -0.06736396 -0.011174486 -0.05116849 -0.008506416 0.01465572
else -0.06544241 0.04397303 0.08313656 0.033785976 -0.03162767 -0.091712095 0.057642546 0.05025094 -0.009013464 0.06769826 -0.015294162 0.06764588 -0.06874822 0.0529421 0.07983002 0.042246763
you're -0.08405249 0.03564143 0.109096624 0.03722904 -0.020119185 -0.068831 0.062412053 0.044514883 -0.03351561 0.014596481 -0.011576447 0.01926807 -0.06681777 0.12127841 0.09360712 -0.0351968
father 0.10151137 -0.052422382 -0.069621496 -0.028799407 0.07352777 0.028934933 -0.104124315 -0.06468348 0.08500984 -0.043863036 -0.059890296 -0.010509681 0.051797777 -0.090415746 -0.05385987 -0.052120022
fan 0.022240536 0.025889145 -0.03613177 -0.06487185 -0.011827966 0.039112136 -0.023967547 -0.005782719 -0.0015997365 -0.018896041 -0.075571306 -0.004899165 -0.02719645 0.035455063 0.018919256 -0.05848
poor 0.02079433 0.04748008 0.03747072 0.028299948 -0.050474092 -0.060147934 -0.006953573 -0.0024830308 -0.0014341093 0.01268171 0.0011604568 0.043071914 -0.08959395 0.01189952 0.014174192 0.074737296
help 0.025664411 -0.057648577 -0.028473051 -0.03655768 0.095141485 0.019293383 -0.055277277 0.0009748412 0.0324734 -0.027544962 -0.11519227 -0.11310671 0.0032362533 -0.06780938 -0.024148272 0.008373241
completely -0.013278151 0.08171607 0.04554626 -0.024482721 -0.0022631772 -0.0649565 0.03144689 0.015593362 -0.0057138135 0.06897679 0.019394713 0.048359226 -0.011283404 -0.0035046448 0.07668118 0.052491356
death -0.019751169 0.021886488 -0.03551685 0.025289427 -0.046582986 -0.030927666 -0.017870275 0.014283668 -0.04359925 0.053665813 0.016229462 -0.024414072 0.0141810775 0.020728087 -0.012445273 0.06889835
3 -0.11736681 0.16084342 0.19222836 0.107812054 -0.2079366 -0.16098909 0.14553279 0.215552 -0.17003952 0.21453996 0.12821321 0.14078291 -0.21213678 0.28157023 0.1766562 -0.08596994
used -0.097364604 0.034328915 0.04476324 0.015495914 -0.03237161 -0.06338174 0.069767 0.06661996 -0.09460332 -0.010409606 0.026778365 0.016446494 -0.07408357 0.059809566 0.02662979 -0.061846923
home 0.15816855 -0.08428803 -0.1451799 -0.15326418 0.21416715 0.1563478 -0.18754059 -0.14948094 0.17614447 -0.058232293 -0.15079299 -0.111122966 0.20010218 -0.10096717 -0.12813322 -0.18889157
either -0.07807733 0.12547144 0.13205458 0.10879857 -0.112682365 -0.07798171 0.09175251 0.13298117 -0.124505945 0.044976674 0.07368732 0.09097859 -0.07676625 0.049698573 0.09974857 -0.015823726
short 0.083557494 -0.037794933 -0.04781554 0.0038886913 -0.01419145 -0.004744103 0.03173933 -0.057014987 0.043568846 0.012144729 -0.03650475 -0.092759416 0.01682716 -0.000812799 -0.081912644 0.07860311
line 0.032479737 0.02274485 -0.03998826 -0.047865953 0.017598348 -0.025418246 -0.046060298 -0.05579865 0.040650487 -0.057667363 -0.027827283 -0.024823476 0.04671571 -0.051142164 -0.032209933 -0.03316225
given 0.09838739 -0.13598609 -0.086401686 -0.161116 0.09013939 0.13788171 -0.07435965 -0.12852192 0.118468836 -0.10689371 -0.15816909 -0.095620714 0.13926882 -0.15493205 -0.13995034 -0.004395524
men -0.017799867 0.030111585 0.08675071 0.0468212 -0.07047881 -0.09572201 0.06393686 0.09034072 -0.0068700523 0.020172494 0.034497574 0.055705342 -0.016396087 0.078341424 0.049208622 -0.10066675
top 0.106145866 -0.10318282 -0.11777497 -0.1338492 0.19159085 0.16109623 -0.13284722 -0.19284207 0.14427933 -0.13343497 -0.106874675 -0.14178546 0.1853444 -0.17500453 -0.17535895 0.07400016
dead -0.09382165 0.030520635 0.12470662 -0.012407318 -0.07120715 -0.11131283 0.09059751 0.07677007 -0.12744603 0.06448689 0.08346167 0.08724893 -0.10905746 0.06673211 0.12728973 0.029327258
budget -0.0098742535 0.062561944 0.027432662 0.006094203 -0.035722468 -0.046494417 0.043672256 0.10230754 -0.08361292 0.08059045 0.048960816 0.038406678 -0.012969084 0.06842316 0.054003667 0.012669204
try 0.031566825 0.025568506 0.03998554 0.03903384 0.029861212 -0.018495306 0.059144735 0.022827039 -0.058896404 0.064676955 -0.019247746 0.020449417 0.03964543 0.054316636 0.057648525 -0.037900228
performances -0.022807805 -0.08863222 0.014068426 -0.026104188 0.095415644 0.011932921 -0.06276962 -0.0719045 0.013106228 -0.11932703 -0.112262726 -0.032187905 0.041976117 -0.04485417 -0.085380316 -0.10372175
wrong 0.0419014 0.014987267 -0.020885656 0.023791 0.025645684 0.013048277 0.0025457738 0.025779057 -0.0056677014 0.040369753 -0.07057969 -0.09936899 -0.02960779 -0.018534528 0.04759471 0.034300156
classic 0.07578778 -0.0031587584 -0.077612184 -0.077472866 0.04477244 0.093911596 -0.06532948 -0.08246051 0.0036862195 0.012409859 -0.123023845 -0.08877459 0.06319356 -0.0043380912 0.011317167 -0.15606293
boring -0.056835096 0.050658632 0.071411 0.06628441 -0.12571377 -0.081903145 0.055852618 0.044899043 -0.04049619 0.053864963 0.052876286 -0.001870241 -0.10367153 0.109311 0.09853165 0.015678333
enjoy 0.07977931 0.040491723 -0.0759876 0.021755459 0.013588958 -0.00057520124 0.0072930707 0.02231791 0.053024866 -0.0184349 -0.010220241 -0.049919512 0.016109541 -0.054398835 -0.06260902 -0.08618917
need -0.040788252 0.029249365 0.051698294 -0.011548748 0.022712477 -0.010567546 0.016157659 0.059839915 0.013708608 0.044756476 -0.005720963 -0.004490469 0.00761384 0.051873468 -3.061635e-05 -0.035267197
rest 0.003609559 0.10588364 0.06889642 0.014969793 -0.06476342 -0.06096222 0.051687814 0.046186984 -0.06018769 0.08657626 0.06816254 0.07867537 -0.07627506 0.05720065 0.05542569 0.09393675
use 0.017121771 -0.031997837 0.009917754 0.011966515 0.04161612 0.030599413 0.051261734 0.0075160298 0.013054887 0.0026303646 0.036671467 0.021454541 -0.02885275 0.017064227 -0.013822043 -0.03613539
kids 0.015379732 -0.00070504815 -0.024499575 -0.054065302 -0.021145638 0.0613904 0.006611472 -0.05321201 -0.013329595 -0.0011110886 -0.04638605 -0.093756534 0.030192118 -0.030242 -0.010112067 0.06545391
hollywood -0.06726697 -0.028928041 0.06646376 0.010116506 -0.018737562 -0.0061086216 -0.027721154 0.051004283 -0.044815645 0.04413165 0.04079617 0.03316565 0.01731294 -0.02385316 0.073136955 -0.021119187
low -0.024356749 0.016943077 -0.06105499 0.07832454 -0.02869064 0.02873378 -0.018534774 -0.01214109 -0.036466278 0.0393349 0.07569085 -0.00100666 0.0626874 -0.052540407 0.01270771 -0.0013496071
production -0.069056675 0.028418915 0.0688443 -0.015098243 -0.03609264 -0.06512574 0.018631155 0.02455523 -0.06854924 0.06351519 0.05010036 -0.018542755 -0.029803583 0.06442559 0.06671905 0.113931336
until 0.074039645 0.035466567 -0.023837678 0.017077798 0.03480083 -0.0009495109 -0.03508276 0.010556488 -0.022525838 -0.022981936 0.008815671 -0.07935432 0.041359156 0.011095961 0.029226014 -0.07443084
along 0.14418267 -0.09951086 -0.080197334 -0.083667465 0.10746959 0.05342058 -0.10289075 -0.14636928 0.043112487 -0.13844216 -0.16251536 -0.092571735 0.105982006 -0.13327946 -0.0846832 0.011374867
full 0.022657063 -0.0038238785 -0.040502787 0.041206807 -0.0011821631 -0.01159762 -0.0006229332 -0.004872495 -0.024681177 -0.038427003 -0.0778955 -0.07111412 0.04885241 -0.08075675 -0.055056788 -0.046139553
friends -0.059070826 0.03228692 0.035487074 0.07359506 -0.09912313 -0.07270507 0.0028911384 0.07573447 -0.021608738 0.04525699 0.033550255 0.052319907 -0.020866169 0.11086462 0.075462095 0.012042014
camera 0.014202935 -0.0041862577 0.0072144815 -0.06384413 0.023036746 -0.015348879 -0.028702915 -0.051564213 -0.020459749 -0.0400186 -0.014892011 -0.040302277 0.010946317 -0.02328612 -0.033969812 0.0033795866
truly -0.048397206 -0.059268914 0.122678004 -0.04330264 -0.059883587 0.011447482 0.053059738 2.6132271e-05 -0.015936656 -0.0025144222 0.020851772 0.01787185 -0.048484705 0.100886986 0.08391078 -0.014923946
women -0.06781602 0.14716917 0.16747084 0.09645703 -0.10315032 -0.10753132 0.11055897 0.11654757 -0.11711097 0.09910604 0.09745923 0.071860045 -0.14022547 0.099570006 0.09809493 -0.034224175
awful -0.16111304 0.115948536 0.11717087 0.17212397 -0.12250768 -0.1554012 0.14727964 0.10412734 -0.17108966 0.14992908 0.106814906 0.08148216 -0.18825175 0.16131411 0.16890867 -0.08303821
video 0.09107785 -0.0045541064 -0.047032304 0.035733283 -0.0073646563 0.031451415 0.0654545 0.008109664 0.03090894 0.07279188 -0.02395771 -0.0141642615 0.057440005 -0.036119685 -0.0057145157 -0.0392822
next -0.024043266 -0.03414 0.015435025 -0.007704582 -0.03856454 0.029872218 0.018266872 -0.02720527 0.039287716 -0.028191593 -0.015158663 -0.012053763 0.059760436 -0.037399955 -0.0039530233 -0.055660296
tell 0.02049689 -0.017812742 -0.004959506 0.019958325 -0.027854042 -0.0036162129 0.04526606 0.024783567 -0.010035916 0.03223073 0.019929187 -0.0011431192 -0.05661898 0.072541185 0.088975824 0.055727724
remember -0.03573582 0.02113756 0.017167194 0.045455694 -0.05621991 -0.042369217 0.026990186 0.013941417 -0.05232797 0.060148392 0.050522115 0.04775856 -0.019317474 -0.012723616 0.009693499 0.06169155
couple 0.061509162 -0.022310048 -0.05754612 -0.07083782 0.065992415 0.040590793 -0.0723385 -0.08108193 0.06798 -0.015497623 -0.009916671 -0.050003167 0.04184931 -0.07407988 -0.029920232 -0.098217905
stupid -0.078298315 0.037376195 0.121714644 0.060651436 -0.07008614 -0.0793182 0.12502612 0.047537368 -0.12339787 0.074191 0.113025516 0.12964703 -0.09758489 0.12810615 0.05550723 -0.016714882
start -0.0059847785 -0.03680561 0.0020213516 0.007852101 0.0010252765 0.011886249 -0.03045192 0.03870448 0.01583278 -0.038307205 -0.014988562 0.007118445 0.019346217 0.0023685761 0.020688795 -0.050620817
stars -0.034358352 0.099862024 0.06860849 -0.016444966 -0.10194681 -0.059423715 0.07006575 0.05286523 -0.06347195 0.11610916 0.03165717 -0.021836845 -0.10244034 0.13710205 0.11819669 -0.14300887
perhaps 0.022821674 0.057980396 0.028937181 0.06348467 -0.063249364 -0.06208731 0.064340524 0.05924459 -0.020562178 0.016526558 0.034490943 -0.017270608 -0.050114363 -0.009251372 0.03702048 0.011118704
sex 0.047198866 0.076582715 -0.039667018 -0.021764437 0.007669122 0.036610518 0.019924711 -0.011292068 0.043395817 0.042449787 0.009048564 -0.0839789 -0.014808619 0.020502534 -0.03124359 -0.031633645
mean -0.073024556 0.034591228 0.04438705 0.027535906 -0.117790736 -0.08005972 0.12328841 0.07446522 -0.114201576 0.08889525 0.051963814 0.043794874 -0.124116406 0.15471192 0.07494478 0.03477121
came -0.049696155 0.0280614 0.025171062 0.01685285 0.0019297652 -0.03371172 0.03996557 -0.035742406 0.042970132 0.0059244195 -0.048411187 0.019565275 0.021126555 -0.02703673 -0.0059203636 0.060495105
recommend 0.071927086 0.018865468 0.017417373 -0.06592834 0.012948846 -0.02819451 0.016296288 0.019484533 0.0005946519 0.029197145 0.00042830064 -0.03593774 0.04379358 0.016740585 0.049097113 -0.03859533
let 0.013243012 -0.01762543 -0.019589167 -0.06561388 0.042404074 0.054987017 0.0025854332 -0.05596037 0.034538828 0.027289195 0.02013701 -0.048647426 0.0024676928 0.014046858 -0.022928532 0.009461445
moments -0.06111353 -0.0002276868 0.010246789 0.025712593 -0.04554254 -0.024011666 0.07834259 0.054084647 -0.067126006 0.017251711 0.03469752 -0.007018269 -0.0011035817 -0.011559962 0.058295187 -0.09108009
wonderful 0.11317785 -0.12868202 -0.06189943 -0.07843359 0.12537225 0.07426367 -0.09561545 -0.12825581 0.11549826 -0.071925014 -0.09750652 -0.12646912 0.0781788 -0.11390385 -0.097422935 -0.08705732
episode -0.02939622 -0.055787977 0.03962055 -0.083509594 -0.022687389 0.039214734 0.03611215 0.0345087 -0.025404269 -0.045419298 -0.0031209374 0.03523335 -0.016481586 0.05140162 0.0515834 0.017089112
understand 0.020717515 0.03223845 0.059986982 0.017528137 -0.0011105691 -0.004582972 0.052417144 -0.017658778 -0.06185593 0.033342443 0.037575297 -0.014086339 -0.055727873 0.0024911966 0.05385744 0.031479597
small 0.017435873 -0.019983329 0.023306822 0.018136684 0.020049669 -0.030023787 -0.034467317 -0.011835381 -0.024056833 -0.03592943 -0.009736048 0.028729811 0.024482453 -0.02560195 0.06051082 -0.023717828
face 0.11538006 -0.007411816 -0.045259397 -0.023117293 0.093254134 0.05339816 -0.10460199 -0.09682863 0.057457857 -0.039725892 -0.09628811 -0.11017948 0.09956422 -0.058063988 -0.07480234 -0.016262664
terrible 0.024167003 0.10890511 0.13375509 0.038889214 -0.049623776 -0.1576883 0.10186283 0.108052164 -0.108325526 0.13000923 0.040486664 0.052385427 -0.13527878 0.1752968 0.16076913 -0.13491054
playing 0.020049691 -0.037393834 -0.039527934 0.034433994 0.034134246 -0.009394207 -0.0022978508 -0.05720997 0.044103857 -0.044266626 -0.01566579 -0.04815793 -0.037112188 -0.06662729 0.018147215 0.030321848
school -0.004639984 0.031355135 0.046637747 0.040585615 -0.07899295 -0.043271977 0.025046198 0.019942343 -0.012455908 0.07752398 0.066542655 0.07642821 -0.100986995 0.03428976 0.044809356 -0.01618687
getting 0.0053331433 0.011935731 0.011316551 -0.028495334 0.03186474 -0.014209979 0.052684072 0.017308792 0.006171684 0.0809138 0.04578008 0.004535272 -0.00890567 0.046004914 0.025595238 0.06866241
written -0.10637168 0.05998495 0.12664293 0.03261628 -0.0711484 -0.10441335 0.10202208 0.075468175 -0.028638855 0.02189594 0.08885618 0.10359131 -0.1067778 0.10311122 0.081937745 -0.038268182
doing -0.0043460866 0.02543227 0.048199046 0.0675811 -0.018952688 -0.035560597 0.07661787 0.036828056 -0.069236904 0.020854993 0.003987011 0.024458382 -0.0056940536 0.04191443 0.022687426 0.07693631
often 0.022918109 -0.0045877695 0.014952411 -0.01824696 0.02771584 0.06388266 -0.019903872 -0.047830634 0.023926023 0.035992242 -0.034433708 -0.03753818 0.017724136 -0.008436629 0.01614002 -0.057777632
keep 0.021285767 -0.016428294 0.029449536 -0.03260109 0.035024934 -0.018766252 -0.052353702 0.015872054 -0.031753078 -0.002010364 -0.06924817 0.028228745 0.042684224 0.016707027 0.031114534 0.0043949825
early 3.645634e-05 0.009103854 0.007733317 -0.023702867 0.030356431 0.008177454 0.019839343 0.01950965 0.06114786 -0.03541231 0.032371834 0.009231446 0.021004815 -0.042164657 -0.033345073 -0.02652167
name -0.032435175 0.046606567 -0.013271105 0.06867928 0.012299078 -0.054352816 0.068240605 0.05546595 -0.040851083 0.0489931 0.013101751 -0.015564149 -0.069553375 0.022849254 0.075962834 0.011918957
perfect 0.0628028 -0.07352422 -0.08607541 -0.07022754 0.06851618 0.008435075 -0.018820288 -0.08327928 0.087536365 -0.03659326 -0.022387747 -0.059114512 0.037990622 -0.05189731 -0.015734572 0.0072015403
style 0.0615555 -0.0055622417 -0.020767627 -0.030486522 0.054691408 0.035433803 -0.00035303418 -0.01328516 0.060651943 -0.011756634 0.0036353879 -0.06834607 0.03888935 -0.009890098 -0.044189043 -0.057190623
human 0.011258461 -0.07079088 -0.07228501 -0.09095255 0.03223658 0.026350861 0.0033395288 -0.0333443 0.062086664 -0.06691757 -0.08605637 -0.040352363 0.08755757 0.013946959 -0.07553362 -0.07043598
definitely 0.10075805 -0.1156495 -0.09930515 -0.15529968 0.104309686 0.14226663 -0.123007014 -0.13272859 0.1267697 -0.04314956 -0.12626912 -0.070536636 0.11715666 -0.11563003 -0.048926078 -0.10158881
gives 0.108604036 -0.09958624 -0.09803163 -0.07960042 0.12880641 0.05447873 -0.059651934 -0.09486996 0.1135214 -0.10672259 -0.08142506 -0.09035923 0.12492885 -0.07377191 -0.11642866 0.032888684
others -0.068437636 -0.0007791043 0.008525666 -0.008551016 0.0044811442 -0.05607263 -0.02176867 0.0025689374 0.008923156 -0.0056584473 0.013546698 0.06344147 0.016776295 -0.012157609 0.00062823744 -0.007216912
itself -0.021280924 0.015903672 0.10381403 0.013058518 -0.11167137 -0.13523008 0.09651692 0.12679663 -0.07710692 0.069324985 0.051144976 0.10331176 -0.12775077 0.16025995 0.065618485 0.03219144
lines 0.05804475 0.0454004 0.021156613 -0.010217586 -0.018639747 -0.0075433375 0.029152086 0.066068955 0.001456823 0.05827521 0.009511395 0.045996994 -0.013531884 0.09859762 0.064650185 -0.026078904
live 0.0905255 -0.06715196 -0.0592429 -0.09357034 0.099062264 0.1321815 -0.11160382 -0.06075732 0.13598648 -0.09201495 -0.07895239 -0.062504165 0.072547056 -0.055935346 -0.09324388 -0.059120312
become -0.019579945 -0.0633665 -0.044496823 -0.0007231569 0.06910598 0.03659523 -0.023535281 -0.014624104 0.029558102 0.014780278 -0.011427363 -0.045283135 -0.0039977487 0.013151956 -0.03670756 0.07936428
dialogue -0.022980396 0.082592316 0.07424006 0.06232852 0.0101884985 0.003702909 0.009935146 0.07488329 -0.052999254 0.03724866 0.062484507 0.018960323 -0.085552625 0.019269627 0.0049531944 -0.052136973
person -0.03737857 0.011046372 -0.0485961 0.019710721 -0.014953193 -0.006761926 0.007148417 0.0041233045 0.006256924 -0.025070406 -0.0093593 -0.041755002 0.011193864 -0.051636465 -0.02824722 0.028330034
lost -0.0068817437 0.06466705 0.013041657 0.032339472 -0.040130816 -0.05019138 -0.028494092 0.00543162 -0.006776622 0.024055399 -0.06426701 -0.074784055 0.056889787 0.038336303 -0.013738155 -0.03741973
finally -0.0060313283 0.006829456 -0.06119313 0.028661542 0.001949077 0.045656674 0.012701252 0.02969162 0.032482017 0.007801306 0.013166933 -0.054277126 0.014037084 -0.0128202 -0.028273072 -0.057113986
piece -0.11143138 0.15861398 0.12797543 0.09731628 -0.11628676 -0.09670675 0.09815705 0.10723194 -0.14194694 0.12155938 0.09260949 0.043384805 -0.1792656 0.22775732 0.14854227 -0.09991466
head -0.046997294 0.07882937 0.0877044 0.060791768 -0.10431072 -0.050234124 0.042530634 0.07836031 -0.11128295 0.050582357 0.076054476 0.022491846 -0.09941922 0.11245207 0.04519122 -0.03860486
case -0.02847944 -0.017334498 0.026998382 -0.05275591 0.03002717 0.016644264 0.03737702 0.048686557 -0.049513314 -0.031105889 -0.0046982584 0.04107161 0.0023296287 0.009931543 -0.00028441756 0.010366987
felt -0.028304426 0.025158582 0.017849516 0.0030140816 -0.009319461 -0.019367892 -0.04778466 0.02265457 0.028858298 -0.019166533 0.05065859 -0.013571547 -0.017844334 0.018100772 0.034928575 0.028376378
yes -0.009844843 0.02362829 -0.0047294754 -0.020282306 -0.035604812 0.031508196 -0.03533841 0.025904171 -0.036341485 -0.0155040845 0.035591 0.0106103765 -0.06750039 0.008330541 -0.015465595 -0.012247267
liked 0.1700664 -0.17661008 -0.10679532 -0.16921787 0.15098669 0.15889925 -0.122169696 -0.2085381 0.13445714 -0.11890622 -0.14826615 -0.15225789 0.12254534 -0.14493638 -0.12583895 -0.07434296
supposed -0.11247024 0.09472318 0.0793631 0.09032911 -0.11062091 -0.07135684 0.14805108 0.11373808 -0.15653837 0.06518927 0.13754033 0.08844233 -0.12738205 0.062049937 0.14538124 0.034235235
title -0.021957157 0.08552362 0.00522553 0.06495512 -0.0071292273 -0.029953264 0.10656512 0.054779056 -0.04877606 0.014119062 -0.0072482615 -0.060196392 -0.03733418 0.04284401 0.060139023 -0.06534152
couldn't 0.0032123472 0.055584535 0.035624404 0.04128298 -0.06891141 -0.042726852 0.087983266 0.073743165 -0.034050506 0.0428861 0.023423938 0.04608792 -0.09215676 0.08830835 0.07452187 -0.014372551
absolutely -0.009002102 0.04996275 0.06541421 -0.0021579158 -0.0031011533 -0.075451665 0.030083917 -0.011711124 -0.077322476 0.07789771 0.016514009 -0.031046186 -0.04317304 0.07673806 0.05125817 0.017870113
white -0.05507444 0.0025205386 -0.03370757 0.0061497567 0.0010990878 -0.028195355 -0.0109524485 0.018028218 0.044668864 0.015918745 -0.046882372 -0.034227908 -0.05770395 0.05883564 0.0005822176 0.018719535
against 0.026954005 -0.009299993 0.02373751 -0.050299663 0.03990389 0.04749987 -0.0036797856 -0.013465717 0.016651932 -0.033593196 -0.060402226 0.023586703 0.046173442 -0.05317639 -0.039372448 0.013168794
boy 0.12945323 -0.10345207 -0.10345571 -0.049960326 0.074687354 0.1024345 -0.14515921 -0.0742654 0.1503841 -0.11202208 -0.054941572 -0.12954703 0.14047562 -0.06441345 -0.10880049 -0.052459598
picture 0.012996989 -0.029356131 0.0083657345 -0.045250554 0.072771825 0.06287376 -0.08115975 -0.10365831 0.056971695 -0.01179627 -0.025821142 -0.07198713 0.10414734 -0.0026625316 -0.06918646 -0.060036242
sort -0.028095575 0.047889072 -0.014308599 0.028095068 -0.021415548 -0.005203554 -0.010329822 0.03782843 0.012893932 -0.0077277627 -0.019233275 -0.024890786 0.026913803 -0.0029390617 0.056217168 0.00063908123
worse -0.040601447 0.023022944 0.008535332 -0.0072800205 -0.06992371 -0.0011824946 0.02642995 -0.0012648883 -0.045902457 0.018493982 0.024766993 0.012999251 -0.078559674 0.06728543 0.014563883 -0.019475807
certainly 0.088371515 0.036703724 -0.09170736 -0.035561558 0.01927951 0.028099474 -0.0076481337 -0.06814901 0.06794363 -0.0002022018 0.022053653 -0.057717927 -0.01635331 -0.031378124 -0.04704917 -0.0412726
went 0.0052552135 0.042184133 0.06674598 0.025231969 -0.06537419 -0.011811512 0.01933125 0.012574221 0.014244338 0.028514702 0.0108859865 0.023713108 -0.049962573 0.031422645 0.092024624 0.011136334
entire -0.0519579 0.114881635 0.027845947 0.12450815 -0.09298357 -0.1337563 0.16859761 0.118546 -0.11014781 0.07724561 0.046737723 0.0802951 -0.07993608 0.07386667 0.13030855 -0.031027498
waste -0.13867188 0.13311064 0.15531777 0.062151294 -0.17028591 -0.19460338 0.12617905 0.19078052 -0.15341179 0.13998961 0.05456976 0.08497077 -0.19061573 0.1363362 0.17980483 -0.09481193
cinema -0.0236719 0.030690216 0.0035320765 -0.12222578 -0.004206908 -0.022085147 -0.00652752 -0.0076963957 -0.06307373 0.045696743 -0.026834916 -0.069047764 -0.026417466 0.041804895 0.013084639 -0.016907075
problem 0.021577893 -0.010461808 -0.038649634 -0.026817016 -0.03378585 0.027450072 -0.003771552 0.032835737 0.050287433 0.019405179 0.0015474773 0.019319417 0.023404783 0.029759906 -0.02518474 -0.006655222
hope 0.15648958 -0.10397898 -0.063986406 -0.045507655 0.06366546 0.08602487 -0.11450294 -0.13160057 0.05250216 -0.03456372 -0.13409477 -0.05791381 0.11189544 -0.07741259 -0.06560408 -0.0034997154
entertaining -0.041660767 0.04750295 0.009415873 -0.037078083 0.007297289 0.018950516 0.07137452 0.054534897 -0.06369204 0.03217382 -0.01806577 0.01527745 -0.052732013 0.052162413 0.045514867 -0.056551766
she's -0.08012667 0.045719407 0.016793467 0.08736383 -0.08528552 -0.060031913 0.040367518 0.052442063 -0.006939334 0.015138607 -0.025424886 -0.015127321 -0.008260204 0.02161825 0.024969498 0.048237026
mr -0.019750118 0.050274204 0.025231514 -0.042234335 0.030709634 -0.059247218 0.030473148 0.015881985 0.0346192 0.02469441 0.028746095 0.025495708 0.01192481 -0.02499408 -0.028135624 0.014470773
overall 0.01337178 0.0064945687 -0.04093569 -0.06508811 0.04666967 0.05680537 -0.041812655 -0.012694095 0.048704337 -0.05608831 0.0014867438 -0.027640171 -0.017138127 -0.012971993 0.0033730788 0.0048136115
evil -0.0128108505 0.06485828 0.05352218 0.005759203 -0.0025278872 -0.07363311 0.02785156 -0.021581423 -0.012737831 0.032549154 0.04861084 0.028578775 -0.05944521 0.012879775 -0.026353281 0.10969362
called -0.011870026 -0.0026422392 -0.013823511 -0.008677692 0.020124692 0.017457685 0.0037858612 0.04958879 0.02256984 0.02971925 0.018157648 -0.0012830391 0.034423165 0.01678348 0.06063471 0.02636202
loved 0.008350231 -0.0517278 0.041163325 -0.028875668 0.038926467 0.022407189 0.025604406 -0.01998679 -0.0344752 0.0012934206 -0.007605701 0.013321723 -0.0017206906 0.034228347 0.029357696 -0.04799777
based -0.011232007 -0.05842762 -0.043170672 -0.058259565 0.025681466 0.043646015 -0.06520318 -0.020969393 -0.0054017776 -0.026914114 -0.11727853 -0.05921477 0.003695731 -0.045580003 0.0013842887 0.020237349
oh -0.007028743 0.020800453 0.06759013 0.054158457 -0.016944315 -0.07509711 0.07632822 0.03632204 -0.10465184 0.0979666 0.00483935 0.017717427 -0.05422949 0.043935705 0.0083000995 -0.027958933
several -0.05109135 0.046096563 0.0717426 0.03576429 -0.031340953 -0.034601375 0.05771249 0.020713454 -0.053020246 0.012592807 -0.0013971186 0.05002096 -0.055066448 0.07620699 0.0114702275 0.04931336
fans -0.023112778 -0.018168427 0.019292848 -0.040948205 0.03517645 0.011279295 -0.01704763 0.031712174 -0.04245705 0.06584436 -0.0683636 0.0023394094 -0.06640889 0.055761762 0.039466523 -0.019860495
mother 0.04187834 -0.010091834 0.0102764135 -0.027161866 0.026243975 0.06079871 -0.060615454 -0.0751583 0.015486004 -0.05261379 -0.06644156 -0.012532924 0.0823993 -0.028696029 0.0076313964 0.038313925
drama 0.055879224 0.02003691 0.044988643 0.008057723 0.050587676 0.0428663 -0.06430766 -0.0095377825 -0.02010621 -0.030226728 0.010582861 -0.045708764 -0.006778036 -0.013361791 -0.010281246 -0.07450636
beginning 0.056451377 -0.08466238 -0.009590591 -0.037776876 0.013638003 0.03783007 -0.0043932395 -0.023437796 0.0054705683 -0.04506205 -0.079265065 -0.060797937 0.081417955 -0.058989663 -0.018763449 -0.050102096
killer -0.02033116 0.027983971 -0.036575638 0.0026244777 -0.005827908 0.011396758 -0.009566719 0.017224774 -0.034450762 -0.023073174 -0.012201702 0.022129232 8.856486e-05 -0.025287945 -0.014065575 0.059884433
lives -0.03308125 0.008601695 0.071154036 -0.010303887 -0.10066716 -0.096762456 0.033492967 0.025560565 -0.043217503 0.013145188 0.0022264288 0.020067189 -0.054029156 0.124615766 0.01667839 0.06559026
5 0.20261693 -0.08267369 -0.05783284 -0.13363701 0.15638456 0.09808131 -0.11803109 -0.11638334 0.14671816 0.018734403 -0.08905112 -0.13670206 0.10394088 -0.049175784 -0.035470836 -0.15432955
direction -0.0750506 -0.03589503 0.017972363 -0.0012082091 -0.05191405 -0.018827643 0.016528707 -0.01890118 0.00018510886 -0.014235246 -0.013817126 0.013648229 0.0034765867 0.07548588 0.04963228 -0.08199176
care -0.06401532 0.10746529 0.06230826 0.09408256 -0.029989658 -0.0407056 0.06438454 0.099122874 -0.07713398 0.10217142 0.043704666 -0.0034178435 -0.066440396 0.0902403 0.041900847 0.007362009
already -0.0399603 0.10876033 0.006572921 0.0140193375 -0.04973098 -0.06309869 0.032766283 0.016040133 -0.07294701 0.04035525 0.037499867 0.043752458 -0.05498884 0.11031682 0.03416821 -0.118107855
becomes 0.11118914 -0.024901602 -0.046957824 -0.08131967 0.10836508 0.09486584 -0.0762166 -0.031462297 0.028604195 -0.06574685 -0.08913595 -0.0922872 0.07493274 -0.069161735 -0.049790166 0.07340106
laugh 0.0015257733 0.03240093 0.04602372 0.077488646 -0.06538137 -0.07394115 0.0056401505 0.0064709443 -0.055117276 0.03726183 -0.0012102682 0.08454288 -0.009284467 0.063227564 0.024624664 0.01853409
example 0.06108009 -0.08440777 -0.11762909 -0.14200178 0.10720193 0.12907718 -0.109114 -0.14472443 0.14362733 -0.09761797 -0.07871125 -0.08059982 0.15361528 -0.089398734 -0.1468975 -0.075619765
friend 0.052047323 -0.043844067 -0.03764537 -0.10333569 0.13489534 0.12627175 -0.08582189 -0.11291821 0.11538563 -0.08330618 -0.06430673 -0.12563668 0.09089945 -0.05304736 -0.120211236 -0.114921555
dark -0.08253512 -0.0043299813 0.06796177 -0.00052556035 -0.032831002 -0.01004138 -0.0039600027 0.06698385 -0.010434447 -0.027788544 0.01763222 0.053977054 -0.015831992 0.059363045 0.029741554 0.058767475
despite -0.0030008652 0.035368312 0.03388252 -0.020912977 -0.042578597 -0.027717367 0.01896692 0.021416655 -0.025020106 0.01761433 -0.013713666 0.03545226 0.011869329 -0.015089659 -0.025414865 -0.047515642
under 0.033362266 -0.024758589 -0.1024265 0.0052322545 0.02745235 0.035056397 -0.0014818923 -0.006201755 -0.018828034 -0.0051896987 -0.05637852 -0.025656056 -0.020706657 -0.04225633 -0.0626018 -0.041249834
seemed 0.13473922 -0.11471035 -0.071340606 -0.14536114 0.1263459 0.05261159 -0.053411573 -0.07334452 0.07781545 -0.07883002 -0.15991607 -0.12532757 0.08256214 -0.10497499 -0.09246567 0.067514315
throughout 0.044726096 -0.10013759 0.01743673 -0.018908752 0.057877038 0.026196815 -0.040552985 -0.115480274 0.023013992 -0.10787366 -0.071111426 -0.06969087 0.08902556 0.0031965447 -0.015635038 -0.09002432
4 -0.0875056 0.15264323 0.2287886 0.032982044 -0.12422032 -0.2014922 0.11356852 0.15753317 -0.15965201 0.112813964 0.09412654 0.09068165 -0.20382039 0.19993868 0.14537145 -0.16003062
turn -0.08936747 0.11468389 0.1356271 0.036300365 -0.07568846 -0.04645916 0.07151412 0.07789495 -0.06445134 0.02115405 0.0832904 0.037601948 -0.08207626 0.11369831 0.10392435 -0.023621807
unfortunately 0.0752676 0.018157152 0.0015001788 -0.0348268 0.043941617 -0.048581067 0.010613529 0.041365884 -0.00012907156 0.05461487 0.0068746335 -0.054715686 0.04553215 0.030362148 0.031378627 0.02456171
wanted 0.079246424 -0.057383176 -0.019767579 -0.12985389 0.093535855 0.048446022 -0.02637235 -0.08627719 0.047634844 -0.09443593 -0.029934403 0.00028526905 0.0060855607 -0.03103384 -0.033167787 -0.054836854
i'd 0.08787904 -0.07595728 -0.11068383 -0.05022193 0.08155299 0.016621448 -0.04730817 -0.111944556 0.090076484 -0.0112370495 -0.04117546 -0.10597715 0.042714372 -0.1196329 -0.06388953 0.07333477
 0.059363525 -0.006945475 -0.0673539 -0.038050406 0.023781272 0.014315813 -0.024351053 -0.009704145 0.00032657434 0.050369937 -0.0022336587 -0.05094155 -0.009452246 -0.012631236 -0.0269118 -0.048396192
children 0.03527432 0.08049896 0.014789121 0.03285561 -0.006690004 0.004744661 -0.03453164 -0.0057035848 -0.011292272 -0.009204362 0.012687325 0.014502971 -0.016546214 0.0578918 0.014860776 -0.0007683481
final 0.116597354 -0.0771667 -0.046223737 -0.07372976 0.12635982 0.08040836 -0.10701308 -0.09651943 0.028873172 -0.029504603 -0.11582798 -0.091601655 0.034168568 -0.0705211 -0.027606513 -0.014004506
fine 0.036230728 -0.10334878 -0.11805494 -0.10941752 0.042487193 0.041900057 -0.072522424 -0.12856025 0.11455108 -0.04027614 -0.067736976 -0.123691276 0.06960604 -0.112351544 -0.089098 -0.042379957
history 0.004811472 -0.024083188 0.028993405 9.27837e-05 0.0126982825 0.031754233 0.04874546 0.02287805 -0.007383877 -0.012364462 -0.045225695 -0.017938068 -0.037066866 0.06062537 0.07777763 -0.08082959
amazing 0.1215401 -0.13792144 -0.08334305 -0.09183133 0.12330672 0.1036058 -0.1419822 -0.14549136 0.13477445 -0.0601873 -0.06516717 -0.12193845 0.104814105 -0.09019733 -0.13964108 -0.1491952
sound 0.12983294 -0.03331556 -0.109339826 -0.0589621 0.10586095 0.05224294 -0.061549976 -0.09237163 0.06775106 0.03878327 -0.10029263 -0.10876124 0.06777049 -0.100236975 -0.11035914 -0.04672743
guess -0.10003386 0.11685886 0.15927751 0.04301014 -0.15714845 -0.147714 0.1550901 0.17248249 -0.15210514 0.13564739 0.07595434 0.0920642 -0.17635302 0.2097008 0.15381783 0.086633675
heart 0.08205082 -0.08042453 -0.057200585 -0.028421909 0.07243878 0.071741626 -0.03193775 -0.08802155 0.11088113 -0.0547644 -0.10703246 -0.045487657 0.08780368 -0.060650077 -0.11125157 -0.037842464
totally 0.04169261 0.08312155 0.036830764 0.07237421 0.020370698 -0.02459093 0.020560434 -0.03133183 -0.003472912 0.07335861 0.041787222 -0.023483826 0.0041950624 0.028711835 0.05645631 -0.006444453
lead 0.017660525 -0.0072786952 -0.030784663 -0.014253264 0.069671445 0.10470631 -0.030141963 -0.09015561 0.07843727 -0.069831885 -0.07288942 -0.018832626 0.07848843 -0.09371286 -0.04206193 -0.00956775
humor 0.015026193 -0.031286083 -0.011857625 -0.018132314 0.04266934 0.0017358235 -0.07958503 -0.007890677 -0.0071698828 -0.047475435 -0.019085024 -0.045173284 -0.004478679 -0.06474685 0.0076996 -0.028945856
writing -0.07334042 0.07473784 0.0460726 0.07949585 -0.024865825 -0.11096847 0.027786678 0.037418246 -0.08107232 0.06637369 0.08059962 0.1115105 -0.097021304 0.0346989 0.07411263 -5.563289e-05
michael 0.054592147 -0.08500729 -0.051574685 -0.036845673 0.08532243 0.07506162 -0.05585121 -0.08975194 0.10608544 -0.08865962 -0.014735184 -0.06938424 0.113313824 -0.025681205 -0.091920204 0.031496394
quality 0.062351573 -0.011226043 -0.06301365 -0.025984814 -0.00070376805 0.056161974 -0.02135076 -0.04395375 0.01034486 0.034696426 -0.05494421 -0.07475209 -0.0064661424 -0.053260293 -0.019600514 -0.07401097
you'll 0.014252355 0.07201706 0.04917424 0.05463457 -0.009808707 -0.021545332 0.08050805 0.0015288263 -0.057854917 0.016388424 -0.004124063 0.018011376 -0.061312564 0.08578401 0.04200138 -0.0094716465
close 0.10810175 -0.113168225 -0.16118112 -0.13346136 0.14758681 0.14878365 -0.13379227 -0.08628955 0.06681935 -0.04316053 -0.20417988 -0.13697071 0.1277858 -0.11791278 -0.14819993 0.01031731
son 0.024017956 -0.03184803 -0.052507438 0.0018207073 0.027744813 0.05768474 -0.030728728 0.00034429517 0.028074684 -0.010444427 -0.051745977 -0.054469958 0.0049788426 0.01937579 0.008061087 -0.02133514
guys 0.077924505 -0.030583367 -0.046695244 -0.04664255 0.025786892 0.09393486 -0.05141857 -0.04353884 0.026975999 -0.009740924 -0.04086156 -0.1184164 0.008235495 -0.0164105 -0.07047947 -0.0056704152
wants 0.015078144 -0.0655492 -0.024596648 -0.038100004 0.020599268 -0.02820071 0.0016817448 -0.029997526 0.013858857 0.00684127 0.0012452414 -0.023273898 0.0433061 -0.0045185955 -0.060154524 0.043917038
works 0.16736268 -0.04649036 -0.12676984 -0.06774463 0.15768172 0.06718058 -0.06270028 -0.10540743 0.052822165 -0.021548282 -0.075736366 -0.13825175 0.17076485 -0.09997104 -0.14859691 -0.127631
behind -0.044071667 -0.0008819524 0.08920598 -0.021644356 0.0045250473 -0.021258581 0.02525922 -0.018271318 -0.035855416 0.0575184 -0.05698421 0.03323366 0.009551998 0.088000596 0.016966518 -0.04870072
tries -0.08364703 0.064729296 0.058615427 -0.0041500526 -0.051076364 -0.009436048 0.05819959 0.037086193 -0.08556178 0.07275267 -0.014739757 -0.0016285724 -0.01221805 0.05196844 -0.0014633738 0.04500711
art -0.05034005 -0.03418734 0.061369848 0.030231131 0.036014736 -0.015333434 -0.019076593 -0.009713559 0.040320534 -0.028681815 -0.013953685 0.065918595 -0.06055394 0.024492647 0.001679275 -0.0103346715
side 0.03223807 -0.058281362 -0.013645763 -0.062965214 -0.019371128 0.002863003 -0.061410036 -0.027786328 0.0032845554 -0.029993841 -0.03804725 -0.047331516 0.03253537 0.014262408 -0.032929737 -0.032988224
game -0.014108233 0.010258721 -0.02271745 -0.023669653 0.0487924 0.052865904 -0.030396642 -0.013438913 -0.017010821 0.002782306 -0.06613656 -0.06809927 -0.0047849542 -0.03812233 0.017999692 -0.04211518
past -0.054998875 0.016184116 0.062454462 -0.006823049 -0.042341035 -0.04048234 0.009493701 0.023017285 -0.0042692544 -0.003544112 -0.027415792 0.012709434 -0.016049681 0.033963133 0.026242683 -0.027160356
able 0.08189616 -0.013381256 -0.066424124 -0.08009145 0.011220588 0.056469668 -0.064395554 -0.0056475205 0.05989232 0.0026317118 -0.041942917 0.0007152192 0.034093283 -0.006362708 -0.028957423 0.045011796
b 0.07923256 -0.016386492 -0.018342858 -0.049442638 0.045076355 0.040898066 -0.09611128 -0.092246704 0.055199537 -0.0015048061 -0.040297385 -0.06649176 0.11408877 -0.057286322 -0.0971444 -0.0063323504
